#ifndef W1_H
#define W1_H

const float w1[784][25] = {{-0.0668096393, 0.0231056362, -0.0228214413, -0.0195910484, 0.0150983334,
  -0.0064234659, -0.0054014772, -0.0012441650, -0.0153704137,
  -0.0425120927, -0.0177884400, -0.0734338313, -0.0262227915,
  -0.0540991910, -0.0765079334, -0.0216190442, 0.0178325251, 0.0188164786,
  0.0118990019, 0.0068997592, 0.0357077122, -0.0548267998, -0.0066094473,
  -0.0355149545, -0.0649375692},
 {-0.0860262588, -0.0469363295, 0.0130341053, -0.0502643175,
  -0.0217377394, 0.0046919361, -0.0696493611, 0.0297454298, 0.0406312197,
  -0.0637535602, -0.0513428897, 0.0401579440, -0.0181245133,
  -0.0841883495, -0.0516924746, -0.0594791546, 0.0092476830, 0.0841219127,
  -0.0318174437, -0.0659657940, 0.0538535565, 0.0616153926, 0.0640905350,
  -0.0542791970, 0.0379268005},
 {-0.0671922192, -0.0480149649, -0.0853344947, -0.0426650420,
  -0.0210079551, -0.0480877496, 0.0505459607, 0.0046997219, 0.0084794834,
  0.0492177308, -0.0494602025, -0.0162912533, 0.0211643726, 0.0556878150,
  -0.0650092512, -0.0220167562, 0.0161529854, -0.0367156938, 0.0403080136,
  -0.0238648430, 0.0421382040, 0.0532921553, -0.0587422624, 0.0315639675,
  0.0205640644},
 {-0.0756109655, -0.0453668907, 0.0394508243, 0.0499373823, 0.0113656297,
  0.0430925339, -0.0485452563, -0.0256751701, 0.0675005168, -0.0603528693,
  0.0400170535, 0.0229256675, -0.0223440006, 0.0618033409, 0.0200058892,
  -0.0162283778, 0.0314632580, 0.0053891018, -0.0064573810, 0.0188725740,
  0.0734240264, -0.0738182962, -0.0804105401, 0.0625307560, -0.0818978325},
 {0.0292475969, -0.0326520465, 0.0515802056, -0.0383000411, -0.0587582588,
  -0.0117105395, 0.0278205052, 0.0249599665, -0.0555886775, -0.0070965365,
  -0.0731077716, -0.0312022679, 0.0501609147, 0.0448883027, 0.0488458723,
  -0.0624991953, 0.0218014941, -0.0009561181, -0.0235157683, 0.0188551620,
  -0.0287829265, -0.0194311216, -0.0834698156, -0.0573141277,
  0.0835160613},
 {-0.0812475234, -0.0215903744, 0.0627507567, -0.0265325867,
  -0.0429897197, -0.0104965344, 0.0215827599, -0.0561639592,
  -0.0744169056, 0.0021954179, -0.0662091076, -0.0201240927, 0.0178083777,
  -0.0285705812, -0.0038217306, 0.0693312287, -0.0673776716, 0.0400552452,
  0.0333443433, 0.0108353794, -0.0211682916, 0.0042989850, -0.0340848453,
  -0.0213657543, 0.0606939346},
 {0.0573979020, 0.0463914573, -0.0612655208, -0.0714308843, 0.0347750857,
  -0.0262685791, 0.0635357201, -0.0724918172, -0.0212254748, 0.0033015385,
  0.0782792866, 0.0129331648, -0.0056150556, -0.0477604233, -0.0543373041,
  -0.0428128317, 0.0472571552, 0.0237593278, -0.0328657068, -0.0714623630,
  0.0020626336, 0.0231561437, 0.0501507521, 0.0637844652, -0.0004665405},
 {0.0258212388, -0.0719866157, -0.0514190011, -0.0319387279, 0.0151210874,
  -0.0078088492, 0.0102445409, 0.0161978081, -0.0002384856, -0.0330973752,
  -0.0706199706, 0.0670146942, -0.0843178481, 0.0536186546, -0.0627070814,
  0.0174358785, 0.0714638382, 0.0818772167, -0.0407924168, -0.0169080645,
  -0.0253522582, -0.0270983391, -0.0550609715, 0.0611944348,
  -0.0808680430},
 {-0.0529215485, 0.0382678658, 0.0588967651, -0.0460630246, 0.0185406655,
  0.0373365730, 0.0233815089, 0.0560540706, 0.0461049229, -0.0518467166,
  0.0734884590, -0.0742373466, 0.0051896870, -0.0827687532, -0.0663102046,
  -0.0470026098, -0.0641250610, -0.0495645925, -0.0205450505,
  -0.0101170316, -0.0493953228, 0.0227697864, 0.0796958506, 0.0761723518,
  0.0477814525},
 {-0.0044811144, -0.0031580627, -0.0207545385, -0.0360498838,
  0.0857107490, -0.0194020271, -0.0350936055, -0.0040170178, 0.0580590218,
  0.0539667606, 0.0797070116, -0.0163206980, 0.0092058629, -0.0668805540,
  0.0191228688, 0.0767465234, -0.0363371968, 0.0364223644, -0.0570288450,
  -0.0178824589, 0.0852390379, -0.0045486242, -0.0495792516,
  -0.0675232261, -0.0292133912},
 {0.0850856602, -0.0816788524, -0.0345848501, -0.0004087612, 0.0304737538,
  -0.0489647537, 0.0828758478, -0.0155207515, 0.0564000010, -0.0071771517,
  -0.0365623981, -0.0667852014, 0.0036894828, 0.0029333532, 0.0814729780,
  0.0738049299, -0.0700480640, -0.0090530813, -0.0715040416,
  -0.0166220888, -0.0117326304, 0.0250800401, 0.0324921161, -0.0582034886,
  -0.0607862473},
 {0.0778241009, -0.0255413204, 0.0380337760, -0.0159091204, -0.0138921142,
  -0.0101550594, -0.0253483541, -0.0211488679, 0.0236501992,
  -0.0724629089, -0.0244495459, 0.0673182011, -0.0290699713,
  -0.0068669021, 0.0505271107, 0.0793467462, -0.0042437389, -0.0806965530,
  -0.0612030178, -0.0744308010, -0.0468446538, -0.0250858478,
  0.0149747729, -0.0779489800, -0.0342096612},
 {0.0519816093, -0.0048141680, -0.0252455343, -0.0493502766,
  -0.0056963502, -0.0402334332, -0.0136686508, -0.0654505417,
  -0.0659040511, 0.0768997222, -0.0239223782, -0.0482291766,
  -0.0805399865, -0.0207910221, 0.0145328632, 0.0301346108, 0.0780811086,
  -0.0318492651, -0.0230677780, 0.0531545877, -0.0736827627,
  -0.0292284098, 0.0254467409, 0.0429438874, -0.0649623349},
 {0.0746357515, -0.0799163729, 0.0390120707, -0.0018045474, 0.0875791088,
  0.0170177594, 0.0304669850, -0.0578803830, 0.0385379456, -0.0675634742,
  0.0566520244, 0.0208775122, 0.0595269389, -0.0477989428, 0.0586416088,
  -0.0763288662, 0.0227191616, -0.0931629464, -0.0621324182, 0.0375533961,
  0.0242888499, -0.0787160769, 0.0618065894, -0.0742183179, 0.0530406758},
 {0.0353590474, 0.0567949936, 0.0710243881, 0.0643103272, -0.0455660261,
  -0.0306274612, 0.0310815033, 0.0460132733, 0.0052133170, -0.0442366675,
  -0.0114415875, 0.0826259553, -0.0756611228, -0.0276371837,
  -0.0403961502, -0.0318289585, -0.0160286315, 0.0028498697,
  -0.0060590939, 0.0107306708, -0.0319779590, 0.0840663463, -0.0750308111,
  -0.0367350020, -0.0061186547},
 {-0.0012301634, 0.0172002390, -0.0448867530, -0.0390668139, 0.0277011376,
  0.0472197309, -0.0117087336, 0.0394991636, 0.0449641533, -0.0680768639,
  0.0207113679, 0.0091820862, 0.0447706059, -0.0768907517, 0.0382440649,
  -0.0063922647, 0.0110225473, 0.0790347680, -0.0365026444, 0.0364849865,
  -0.0093456730, -0.0648775250, -0.0051468685, 0.0440031476,
  -0.0214967784},
 {-0.0652689040, 0.0173710138, -0.0337869376, 0.0649100691, -0.0770162120,
  -0.0826779827, 0.0248763338, -0.0289722569, 0.0539646447, 0.0461957604,
  0.0468973368, 0.0297165811, 0.0533498824, 0.0724684745, 0.0723956376,
  -0.0006403252, 0.0265380517, 0.0232285187, 0.0358417481, -0.0803918168,
  0.0756676197, 0.0664256960, -0.0154723376, 0.0214378238, -0.0208357498},
 {0.0634602010, 0.0175505877, 0.0839314759, 0.0045157298, 0.0315503776,
  -0.0202930346, 0.0213474557, 0.0178172067, 0.0808560550, 0.0367219523,
  0.0776550621, -0.0429456383, 0.0318890810, 0.0706747323, -0.0490469038,
  -0.0331682935, -0.0708923787, -0.0346837975, -0.0794925094,
  0.0210231692, -0.0351356752, -0.0114262477, -0.0297999829,
  -0.0860837474, 0.0282030925},
 {0.0270429403, -0.0824510604, 0.0352295339, 0.0367350355, 0.0243699998,
  0.0284301564, -0.0374960490, 0.0422565043, -0.0005094111, 0.0045885965,
  -0.0257379375, -0.0574855506, -0.0796798468, -0.0118893534,
  0.0397269428, 0.0657391995, -0.0149449334, 0.0220272094, 0.0250384212,
  -0.0275162384, -0.0635097772, -0.0110124946, 0.0431931913, 0.0661252141,
  -0.0809650794},
 {-0.0558621287, -0.0722133592, 0.0723961294, 0.0554135740, -0.0467300005,
  -0.0558206961, 0.0229537338, 0.0783053488, 0.0526013672, 0.0420224369,
  -0.0495825373, 0.0405803621, -0.0601480603, -0.0828765556, 0.0470355600,
  -0.0407552719, -0.0651991963, 0.0452275723, -0.0403779484, 0.0057921112,
  0.0362637118, 0.0457341522, 0.0694847405, 0.0689918697, -0.0610201135},
 {0.0661609322, 0.0827333927, 0.0147070512, 0.0297193080, 0.0004194975,
  0.0365519077, 0.0848283023, 0.0739564449, 0.0357989594, -0.0814018473,
  -0.0475259833, -0.0368586183, 0.0588781834, 0.0091148242, 0.0728190839,
  -0.0020842701, -0.0780099258, 0.0816873759, -0.0416785777,
  -0.0737271160, 0.0606950670, 0.0700614303, -0.0553199872, -0.0076861531,
  0.0008144230},
 {-0.0468452498, -0.0235206783, -0.0752954632, 0.0306761041, 0.0710438937,
  0.0483860672, 0.0257244706, -0.0747268796, 0.0209324732, 0.0297460631,
  0.0158036277, 0.0721217245, 0.0196017474, -0.0832309052, 0.0593997389,
  -0.0653181151, 0.0678147078, -0.0591168776, -0.0054747388,
  -0.0235043913, 0.0592878461, -0.0770422891, 0.0855729133, -0.0340252183,
  -0.0184825435},
 {-0.0344283730, 0.0752192736, -0.0539448075, -0.0729403719,
  -0.0300084502, -0.0800830871, 0.0150899962, 0.0123165771, -0.0851392522,
  -0.0667248964, 0.0315005034, 0.0731124878, 0.0145870745, 0.0073682219,
  0.0198042989, 0.0721853077, -0.0630960092, -0.0559390038, 0.0836960226,
  0.0626555085, 0.0303156376, 0.0500740856, -0.0485950075, -0.0698143244,
  -0.0818929821},
 {-0.0860221684, 0.0053401887, -0.0239184313, 0.0602772683, -0.0806712806,
  0.0657462627, -0.0343159996, 0.0503708124, -0.0693720132, -0.0123377666,
  0.0137182847, 0.0250455216, -0.0780845135, -0.0464828908, 0.0290874615,
  0.0281259045, -0.0036663637, 0.0294813588, 0.0470752567, 0.0407347679,
  -0.0654153228, 0.0192321613, -0.0001187995, 0.0359486416, 0.0074021444},
 {-0.0707232729, -0.0756723583, -0.0308567062, 0.0089995340,
  -0.0058525577, -0.0399112031, -0.0411007740, -0.0164981559,
  -0.0534563996, 0.0310804918, -0.0003312305, -0.0235593021,
  -0.0164760202, 0.0164628997, -0.0370793827, -0.0791971087,
  -0.0600681454, -0.0656450987, -0.0300402343, 0.0181510821, 0.0314992070,
  0.0714423656, 0.0608763099, 0.0133760497, -0.0152339488},
 {0.0052957609, -0.0006976351, 0.0657369047, 0.0566236973, -0.0467049703,
  0.0849187672, 0.0860635638, -0.0072773471, -0.0525399335, 0.0547383726,
  0.0577244312, 0.0404312313, -0.0697342828, 0.0162136629, -0.0312632918,
  -0.0599275380, -0.0488536954, -0.0686822385, 0.0355060175,
  -0.0429237895, 0.0813479573, -0.0439193286, 0.0624842495, -0.0114835724,
  0.0072365701},
 {-0.0857799277, -0.0142136514, 0.0396721065, 0.0026635155, -0.0555296056,
  -0.0054911077, -0.0822926313, 0.0765921772, 0.0639125258, -0.0477179214,
  0.0125670284, 0.0475243181, -0.0417955294, 0.0736841559, -0.0347436704,
  -0.0273295566, 0.0846938342, 0.0805094987, -0.0377658457, 0.0455076993,
  0.0399291515, -0.0013413429, 0.0671796352, 0.0384761095, -0.0753346458},
 {0.0282932073, 0.0543708354, -0.0639849007, -0.0735485628, 0.0484068394,
  -0.0177891180, -0.0061305091, -0.0034074858, -0.0514019206,
  0.0719187558, -0.0855754465, 0.0147225708, -0.0226537734, -0.0147450715,
  0.0280178040, -0.0330449156, -0.0450556166, -0.0844790936,
  -0.0274326093, 0.0657959878, 0.0395907760, 0.0101272762, -0.0543041639,
  -0.0640451461, 0.0825426280},
 {-0.0735651106, -0.0069251359, 0.0501657575, -0.0094431341,
  -0.0104721785, 0.0129031017, -0.0347373448, 0.0851173699, -0.0457244404,
  -0.0000097156, -0.0391564295, -0.0607151464, -0.0781746507,
  0.0323847979, -0.0418716446, 0.0310927480, 0.0804117769, 0.0798742920,
  -0.0856533870, 0.0389174372, -0.0839255750, 0.0453713238, -0.0114904940,
  0.0680926293, -0.0410909578},
 {0.0777151436, 0.0770430416, 0.0282568261, -0.0374108590, -0.0167316347,
  -0.0310692787, -0.0494147241, -0.0097232014, -0.0395710841,
  0.0158083290, -0.0268115625, -0.0611140728, -0.0384029299,
  -0.0388491824, 0.0177205577, 0.0491475016, -0.0395046175, 0.0667022169,
  0.0073200762, 0.0501455367, 0.0430885404, 0.0756416917, 0.0516149849,
  -0.0059088171, -0.0425135940},
 {-0.0857198909, 0.0041643381, -0.0432341807, 0.0491736978, 0.0008381382,
  0.0778200924, -0.0024248436, -0.0498606898, 0.0028793141, 0.0365564227,
  0.0737007558, 0.0672535747, 0.0671919882, -0.0406755246, -0.0055639148,
  -0.0039646402, -0.0142802969, 0.0741507858, -0.0265445784, 0.0434172004,
  0.0514450818, -0.0309061073, -0.0266568512, -0.0198928341, 0.0593171567},
 {-0.0310718454, 0.0194093138, 0.0307659730, -0.0562789999, 0.0084439442,
  0.0812594295, 0.0226415396, -0.0637586117, -0.0221457779, 0.0537342876,
  -0.0107972100, 0.0372963920, -0.0258725099, 0.0768181831, -0.0143851563,
  -0.0851883069, 0.0238649622, 0.0520973951, 0.0507706851, -0.0523038693,
  0.0794630498, 0.0079644099, 0.0138996318, -0.0613473430, 0.0281550214},
 {0.0792589858, -0.0843047500, 0.0399735384, 0.0573651753, -0.0611684807,
  0.0704696849, -0.0456129499, -0.0777691752, 0.0660545826, -0.0033975623,
  -0.0402277969, 0.0327611938, -0.0464812443, -0.0524095520,
  -0.0362137221, -0.0708945319, -0.0570591874, -0.0098503465,
  0.0541451722, -0.0595740825, -0.0562018678, 0.0738839209, -0.0013491114,
  0.0621791594, -0.0832624659},
 {0.0137847727, 0.0443289392, 0.0312181022, 0.0509454198, 0.0555845089,
  0.0599945299, -0.0445424356, 0.0614180043, -0.0345467851, -0.0233928952,
  -0.0804373398, -0.0172069538, -0.0124325054, -0.0735403076,
  -0.0521696694, 0.0284595992, 0.0425531790, 0.0597202554, -0.0288214721,
  -0.0190312658, -0.0504432432, -0.0733142570, 0.0777799934,
  -0.0680417642, 0.0317484625},
 {0.0272608027, -0.0636070743, 0.0079813143, 0.0363534652, 0.0825373530,
  -0.1063996777, 0.0433212295, 0.0117138112, 0.0859318897, -0.0869739279,
  -0.0467867218, -0.0170520190, -0.0390710793, -0.0471901447,
  0.0483442545, 0.0841116235, -0.0783424377, 0.0523641221, -0.0689692721,
  0.0592536405, -0.0249606185, -0.0634907186, 0.0447163358, -0.0542920828,
  -0.0555921532},
 {-0.0077071269, 0.0842967108, -0.0327078365, 0.0050750184, 0.0343597010,
  0.0058733169, -0.0796977356, -0.0320177674, -0.0518021435,
  -0.0683108568, 0.0422803573, 0.0635550693, -0.0734065846, 0.1193400472,
  0.0527857803, 0.0930657387, 0.0238492973, 0.0068599461, 0.0248587057,
  -0.0192872975, 0.0359443761, 0.0030406008, -0.0051023029, 0.0174748376,
  0.0387445688},
 {0.0605469048, -0.0251055565, -0.0432841480, -0.0497101657, 0.0366301499,
  -0.0040050582, -0.0642466769, 0.0387868956, 0.0239067972, 0.0123556750,
  -0.0487903394, -0.0732036158, -0.0004481137, 0.0601513945, 0.0436077267,
  -0.0250735469, -0.0419834256, -0.0230536014, 0.0878266320, 0.0084095784,
  0.1143974140, -0.0818482712, -0.0975668356, -0.0256523155,
  -0.0744550601},
 {0.0443367437, 0.0656982437, 0.0208296739, -0.1021761671, -0.0006391872,
  -0.0483373180, -0.0801517665, 0.0107907476, 0.1023293436, 0.0750848949,
  -0.0784757137, 0.0361773595, -0.0635174885, 0.0523438454, 0.0659707338,
  -0.0432177074, -0.0629415587, 0.0280518197, 0.0725850388, 0.0449434333,
  0.0329114310, -0.0068942220, -0.1038304642, 0.0157624669, 0.0517959706},
 {-0.0298809465, 0.0691957548, -0.0359913036, -0.0233757216, 0.1252549291,
  0.0086680483, -0.0866062939, -0.0178643707, 0.0669560358, 0.0554941297,
  0.0331103653, 0.0614873692, 0.0890375078, -0.0418381207, 0.0264979098,
  0.0536554009, 0.0596890748, -0.0382699296, 0.0206738487, 0.0590662509,
  0.0894092843, 0.0236244891, -0.1121049523, 0.0990930870, 0.0585318208},
 {-0.0773613080, 0.0210653264, 0.0209402908, -0.0668774545, 0.1650876105,
  -0.0099672908, -0.0160718579, 0.0868100524, 0.1014510766, 0.0301963929,
  0.0369490534, -0.0593170971, 0.0262623094, 0.0799264684, -0.0309010260,
  0.0442841984, -0.0836803019, -0.0099175544, 0.0826055259, -0.0066737519,
  0.0577206239, -0.0957058370, 0.0260600001, 0.0544652082, -0.0160732437},
 {0.0304783192, -0.0645745918, -0.0089897718, -0.0776316822, 0.1786806583,
  -0.0171486083, -0.1827396601, 0.0448012576, -0.0267064683,
  -0.0983712152, -0.0371674858, -0.0786155239, 0.0517253429, 0.0775800049,
  0.0046522305, -0.0161851402, -0.0939263776, -0.0685679242, 0.0175820384,
  0.0895540342, 0.0845950246, 0.0416198522, -0.1274803579, 0.0699602515,
  0.0073015317},
 {0.0031771765, -0.0773166642, -0.0067760502, -0.0754850805, 0.1283278912,
  -0.1318845600, -0.0443518646, 0.1074314341, 0.0643707663, -0.0520460717,
  0.0810451359, -0.0945904627, 0.0726345181, -0.0263012629, -0.0413072780,
  -0.0167007800, 0.0136443824, 0.0524076633, -0.0219537504, -0.0200294517,
  0.1008640975, -0.0391719490, -0.0819676816, 0.1325662881, 0.0259177610},
 {0.0308671147, 0.0695845336, -0.0016485783, -0.0518747419, 0.0366237275,
  -0.0954722092, -0.0221143663, 0.0252929591, 0.0474697649, -0.0739665702,
  0.0091155702, 0.0171836205, -0.0035083992, -0.0360072441, -0.0599426590,
  -0.0421892665, -0.0108990166, -0.0170195419, 0.0075653242, 0.0483764298,
  -0.0216305070, -0.0438851267, 0.0005812461, 0.1102914289, 0.0241485462},
 {0.0234596450, 0.0779424310, 0.0697001889, -0.1234238967, 0.0728456005,
  -0.1261854917, -0.0719074383, -0.0754127130, 0.0016367849,
  -0.0601745732, -0.0136637604, -0.0772217065, 0.0483795665,
  -0.0081461333, -0.0067189187, -0.0775015876, -0.1102907509,
  -0.0981122181, -0.0337604359, -0.0657832548, 0.1072320491, 0.0391652808,
  -0.0654082224, 0.0262691416, 0.0341083445},
 {-0.0022337537, -0.0363476835, 0.0148244444, -0.1092173755, 0.1051935479,
  -0.0106812911, -0.0376979448, 0.0098796040, 0.0533193238, 0.0149935316,
  -0.1273882836, 0.0942044407, 0.0768997818, 0.1406297386, 0.0597391501,
  -0.0310923196, 0.0171563663, -0.0130042788, -0.0366844945, 0.0691316277,
  0.0417773016, 0.0253513195, 0.0360225290, -0.0234252010, 0.0068299221},
 {0.0149637768, -0.0681925565, -0.0216427073, -0.1078829318, 0.0654186904,
  0.0002602111, -0.0958774686, 0.0507346615, -0.0373378061, -0.0029943418,
  0.0375412814, 0.0607675426, -0.0014188302, -0.0173293501, -0.0093895802,
  -0.0333693884, 0.0008276712, -0.0226463880, 0.0387281105, -0.0250496622,
  0.0768682659, -0.0416291133, -0.0337260291, 0.0263219569, -0.0107422955},
 {-0.0303284898, -0.0423962288, 0.0397164263, -0.0031948774,
  -0.0467031263, -0.0078545101, -0.1095146462, 0.0179997906, 0.0241447221,
  0.0361144021, -0.0647350252, 0.0609287843, 0.0748885497, -0.0056795501,
  -0.0236803293, 0.0870061889, 0.0623169355, -0.0835755393, 0.0242198855,
  -0.0032481265, 0.0018276395, 0.0144139230, 0.0415924303, 0.0901464447,
  0.0042858166},
 {-0.0221184101, 0.0008844261, -0.0639398396, -0.1037557796, 0.0538513064,
  0.0034068485, -0.0072303992, 0.0173788071, -0.0381935500, -0.0397148244,
  -0.0108206756, -0.0893589035, -0.0122482767, 0.0292516872,
  -0.0406272113, 0.0145661505, 0.0484979227, -0.0633578524, -0.0175615605,
  0.0792464018, -0.0390735306, 0.0274351146, -0.0426482409, -0.0309945419,
  -0.0799717009},
 {0.0402158834, -0.0534153841, -0.0905994475, 0.0496279523, -0.0077146091,
  0.0496119186, 0.0509169698, 0.0917541683, -0.0104882643, 0.0445375964,
  0.0912629291, 0.0355653130, 0.0288760047, 0.0845199972, -0.0550244898,
  0.1005671024, 0.0623615012, -0.0821159557, 0.0498370044, -0.0585007481,
  0.0250434075, -0.0077534402, -0.0024683457, 0.0707908496, 0.0427549258},
 {0.0056555583, 0.0308207981, 0.0171244927, -0.0060037309, 0.0872926861,
  0.0631091520, -0.0600437745, -0.0465869941, 0.0618358292, -0.0815939754,
  0.0007188085, 0.0470787175, 0.0074279495, -0.0391238257, -0.0333496220,
  0.0757055730, -0.0566184968, 0.0482938029, -0.0242919065, -0.0662188977,
  0.0626623929, -0.0316585824, 0.0546527877, 0.0612246804, 0.0461982191},
 {0.0619713627, -0.0097196512, 0.0730405226, -0.0802988485, 0.0943677723,
  -0.0771517530, -0.0609349944, -0.0550561622, 0.0878808796, 0.0194592457,
  0.0680159777, 0.0141466279, 0.0635685623, -0.0346264653, -0.0484014601,
  -0.0081373444, -0.0685649961, 0.0047278078, -0.0492180474,
  -0.0027210840, -0.0462837964, 0.0058310349, -0.0612290874,
  -0.0226541050, 0.0379061997},
 {0.0644952208, 0.0653474852, 0.0141434819, -0.0087168645, 0.0949365348,
  0.0458730049, -0.0844252706, -0.0787856281, 0.0822288319, 0.0377053209,
  -0.0133197950, -0.0733781755, -0.0059994874, 0.0928287804, 0.0785787404,
  -0.0419397317, -0.0365478806, 0.0571973994, 0.0417820252, -0.0247264765,
  0.0936719850, 0.0575905629, 0.0354279727, -0.0401770473, 0.0422088504},
 {0.0625474900, 0.0662859529, 0.0798383802, 0.0583942980, 0.0375944003,
  -0.0226140022, 0.0318979472, -0.0564218238, -0.0275596827,
  -0.0585656390, -0.0838868916, 0.0073099956, 0.0182453096, 0.0227321908,
  -0.0356126241, -0.0287109613, -0.0791980177, -0.0659050345,
  0.0503110439, -0.0503264703, -0.0525022745, 0.0454268456, 0.0411439985,
  -0.0341021121, 0.0736404061},
 {-0.0446252562, -0.0183423832, 0.0281366035, 0.0247641057, 0.0328489766,
  0.0443228930, -0.0043775886, -0.0396569483, -0.0740925074,
  -0.0484601706, 0.0622770339, -0.0133223981, 0.0157482103, 0.0566346794,
  -0.0077369437, -0.0000739172, -0.0312222466, 0.0196856633, 0.0274433643,
  0.0199430361, -0.0097697228, -0.0023663044, -0.0022445917,
  -0.0028043464, 0.0296767652},
 {-0.0602506399, -0.0662514642, -0.0387566611, 0.0708213300, 0.0702164471,
  -0.0832539201, -0.0425573885, -0.0601077974, -0.0443936922,
  -0.0493012629, -0.0472298227, -0.0810965076, -0.0181625187,
  0.0100626424, -0.0006478578, -0.0504855365, 0.0820038468, 0.0557442904,
  0.0321384445, -0.0004852414, -0.0853126273, -0.0271699578,
  -0.0527828336, -0.0389775299, 0.0414967388},
 {-0.0059412792, 0.0410749912, -0.0552101210, 0.0473456234, 0.0246989578,
  -0.0702940226, 0.0650185645, 0.0633961558, -0.0713652596, 0.0659465939,
  -0.0401095264, 0.0476522744, 0.0749236792, 0.0258410722, 0.0616049767,
  0.0680010617, 0.0697362572, 0.0003450289, 0.0823944956, -0.0167108104,
  0.0245326608, 0.0146368891, -0.0762559995, 0.0325158536, 0.0792866796},
 {-0.0277308002, -0.0442462899, 0.0806865990, -0.0319461003, 0.0579219013,
  -0.0559251234, 0.0523298085, -0.0079197884, -0.0362897664, 0.0080120414,
  -0.0623634122, -0.0305604041, 0.0686655939, -0.0513041019, 0.0160586610,
  0.0678792745, -0.0107050240, -0.0446065702, 0.0382994041, -0.0586969033,
  0.0070716143, 0.0331797749, -0.0359717384, -0.0300296172, -0.0354503989},
 {-0.0815898627, 0.0164628029, -0.0784421489, 0.0809042603, -0.0045740604,
  -0.0062599853, 0.0581707209, 0.0691773146, -0.0522726625, 0.0618996471,
  0.0509891808, -0.0652161986, 0.0734275281, 0.0291933939, -0.0461268164,
  0.0472764969, 0.0481212586, 0.0680061132, -0.0747048482, -0.0673827231,
  0.0709292889, -0.0281775482, 0.0619589686, 0.0657966435, 0.0115234628},
 {0.0368497036, 0.0105936201, 0.0118610971, 0.0860344544, -0.0780832991,
  0.0112257246, -0.0734643489, 0.0251596309, 0.0344377942, -0.0575015396,
  0.0540759601, 0.0699330196, -0.0368974954, -0.0247467235, 0.0075866831,
  0.0654473752, -0.0448079780, 0.0033170416, -0.0050659752, 0.0856009796,
  -0.0479097851, 0.0672716349, 0.0139051732, 0.0502545275, 0.0278434362},
 {-0.0784730837, -0.0061045554, -0.0354858525, 0.0551339611, 0.0185032394,
  0.0833818018, 0.0022054100, -0.0691519454, 0.0667559728, 0.0019641966,
  -0.0253015868, 0.0791363418, 0.0551919825, 0.0572221167, -0.0204124060,
  0.0047505321, -0.0177015979, 0.0558146723, -0.0482813865, 0.0717707351,
  -0.0256386697, 0.0629624873, 0.0180462170, -0.0489324816, 0.0280177947},
 {-0.0507068895, -0.0006470758, 0.0770269334, 0.0805459395, -0.0426605828,
  0.0506075881, -0.0824126080, -0.0072740121, -0.0435777009, 0.0543566085,
  0.0237250738, -0.0670674369, -0.0823909044, -0.0748570263,
  -0.0584670044, -0.0754914880, -0.0211991426, 0.0731211752,
  -0.0312334578, -0.0674841478, -0.0370456204, -0.0215737689,
  0.0111296149, -0.0435244367, 0.0739246160},
 {0.0004717458, 0.0627627522, 0.0450825430, 0.0394497924, -0.0521392711,
  -0.0790081248, 0.0431349985, 0.0085981861, -0.0426080711, 0.0819931924,
  0.0553994961, 0.0760124698, -0.0721536949, 0.0062575303, -0.0182137191,
  -0.0463815443, -0.0295216609, -0.0538489036, 0.0342879854, 0.0078774057,
  -0.0806788057, 0.0043312823, -0.0654103532, -0.0702945590,
  -0.0737759173},
 {0.0020452202, 0.0399643481, 0.0320855379, 0.0334274732, 0.0388561003,
  -0.0249329228, 0.0695400909, -0.0344236568, 0.0448452048, -0.0842921659,
  0.0825708285, -0.1029541492, 0.0137320692, 0.0529823974, -0.0744516924,
  0.0336182043, 0.0138454325, 0.0461031049, -0.0786335617, -0.0486389138,
  0.1026161686, 0.0795741305, -0.0124431625, 0.0017415266, -0.0746075585},
 {0.0332552940, 0.0358620845, -0.0760866106, -0.1500864178, 0.1393563896,
  -0.0478059798, -0.0303098857, -0.0156408586, 0.0718989521,
  -0.0083958358, -0.0653142855, 0.0087945815, 0.0540597364, 0.0688996091,
  -0.0453331247, 0.0499835573, -0.0564277656, -0.0463134386, 0.0563188456,
  0.0428781062, 0.1935044974, -0.0681660771, -0.1380478293, 0.0313122980,
  0.0004814269},
 {-0.0615753271, -0.0073364242, -0.0868505612, -0.1245780215,
  0.1176316366, -0.2180816382, -0.0701536611, 0.0416952893, 0.1069225147,
  -0.0482546389, -0.0380899534, -0.0710269734, 0.0291638672, 0.1083452404,
  -0.0397798344, 0.1517816633, 0.1089309230, -0.0184361320, 0.1070249677,
  0.0998147950, 0.1966827363, -0.0768615305, -0.0849432498, 0.0273012109,
  0.0219741687},
 {-0.0263368301, -0.0518478379, -0.0488810167, -0.1696880311,
  0.2088006437, -0.2100846767, -0.2143817544, -0.0298706647, 0.1182209104,
  -0.0447859056, -0.0194711722, -0.0924681425, 0.0938237906, 0.0819425210,
  0.0470054597, 0.0958565250, 0.1394113004, -0.0871988907, 0.0471783951,
  -0.0013128995, 0.2024611682, -0.0712479949, -0.0773016363, 0.1963336170,
  0.0378629789},
 {-0.0465214960, -0.1175713539, -0.1373316944, -0.2306949049,
  0.1862300783, -0.2790641487, -0.3213348389, -0.0037064462, 0.3011513054,
  -0.1748729795, 0.0306554157, -0.1338716894, 0.0899944976, 0.0586098060,
  0.0014960708, 0.2845162153, 0.0656219423, 0.0122486083, 0.0961373895,
  0.0711004660, 0.2599199712, -0.0039941273, -0.2483987659, 0.2298299223,
  -0.0485122874},
 {0.0033648550, -0.1259384006, -0.0896312445, -0.2652529776, 0.3251076639,
  -0.3691191673, -0.3248891234, 0.1107114628, 0.2941708267, -0.1594963372,
  0.0491154790, -0.1652253121, 0.1650722921, 0.1692468077, 0.0113764303,
  0.1765491366, 0.0609346703, -0.1121040434, 0.0890532956, 0.0567741059,
  0.3169339597, 0.0541996621, -0.1412698776, 0.3623594940, -0.0163283572},
 {-0.0994994715, -0.1105212048, -0.1791073084, -0.1757446527,
  0.3323230147, -0.3044504821, -0.1970402300, -0.0253549032, 0.2730220556,
  -0.1445713937, 0.0313816890, -0.1419602185, 0.0137759121, 0.1855629086,
  -0.0070265359, 0.2163865119, 0.1308571100, -0.1108650193, 0.1526177377,
  0.0586326197, 0.3577001691, 0.0506816171, -0.1358421892, 0.3937159777,
  -0.0950453132},
 {-0.2022634298, -0.0825109109, -0.0435604453, -0.2572482228,
  0.3956388831, -0.3166193366, -0.2629034817, 0.0118458541, 0.2803861797,
  -0.2888329625, 0.1239119694, -0.1434445828, 0.0229356345, 0.2616859078,
  -0.0052334485, 0.1624757200, 0.0993660539, -0.1934155524, 0.0694151744,
  0.0146293892, 0.3721641004, 0.0606896169, -0.1716893464, 0.4751557112,
  -0.0563240871},
 {-0.2563016713, 0.0310930684, -0.2081283033, -0.3207134008, 0.3076902330,
  -0.3239713609, -0.3656511605, -0.0415218361, 0.4055103958,
  -0.3002988398, 0.1275639832, -0.0752569586, 0.1529032737, 0.2889907956,
  0.1436439604, 0.1600510478, 0.1635390818, -0.0414346270, 0.1321357787,
  0.0782086477, 0.2881682515, -0.0572416857, -0.2757197917, 0.4155476987,
  -0.1283328533},
 {-0.2939871550, 0.0232579149, -0.1138512343, -0.3036460280, 0.2353757471,
  -0.2680242360, -0.2887134850, -0.1596195400, 0.4126661718,
  -0.2197733968, 0.1311228722, -0.1050753444, 0.0122050112, 0.3400588632,
  0.1502310932, 0.0616363399, 0.0824692175, -0.1396589130, 0.1897730082,
  -0.0020129066, 0.1751403213, 0.0705443099, -0.3304655850, 0.4207647145,
  0.0585859083},
 {-0.2948698997, 0.0736311451, -0.1292647719, -0.3325234950, 0.2710472941,
  -0.2804549336, -0.2963593006, -0.1176483035, 0.4284858108,
  -0.1728909314, 0.1226695180, -0.0703260154, 0.0827767476, 0.2423475385,
  0.0378479548, 0.1593623757, -0.0044697467, -0.1551666856, 0.1607380509,
  0.0123066679, 0.2889949977, -0.0625910163, -0.2227363288, 0.3152674735,
  0.0078896042},
 {-0.2310344577, 0.0600034744, -0.0836378261, -0.1952902079, 0.2560116649,
  -0.2420503646, -0.2537952065, 0.0777534321, 0.3488407135, -0.0704178885,
  0.1456874758, -0.0272195786, 0.0305843614, 0.2018517107, 0.0096727479,
  0.2065216154, 0.0534247421, -0.1437700391, 0.1881166995, 0.0347973220,
  0.2074095905, -0.1494585872, -0.2404948324, 0.4249716103, -0.0402959771},
 {-0.1870066673, -0.0038856778, -0.1248784587, -0.1115268022,
  0.2267617732, -0.1812260747, -0.3268711865, 0.1331159472, 0.2936580181,
  -0.1319144815, 0.2411201596, -0.0177467689, 0.0076952227, 0.1107147485,
  0.0236358996, 0.1878149360, 0.0028804587, -0.1030923054, 0.1891924739,
  0.0421141014, 0.1932069808, -0.0890623704, -0.2685936391, 0.4211133420,
  -0.0487531014},
 {-0.1739753038, -0.0499106795, -0.1064068452, -0.1462481171,
  0.2269185632, -0.0783250183, -0.3454644978, 0.2268727422, 0.3802200854,
  0.0065821637, 0.1361100823, -0.0944824964, 0.0915331170, 0.0946362242,
  0.1051175147, 0.3417345285, 0.1627607495, -0.0972051546, 0.2312141210,
  0.0595231019, 0.0327583812, -0.1367424279, -0.3477026224, 0.3504048288,
  0.0103427703},
 {-0.0098622339, -0.0178578906, -0.1912797093, -0.1484187841,
  0.0561092608, -0.1565513164, -0.1819463670, 0.0904546976, 0.2290030569,
  -0.0023715161, 0.1280354708, -0.1351247430, 0.0160477180, 0.1167629957,
  0.0245802049, 0.1769525707, 0.1037745997, -0.0825910643, 0.0940730125,
  0.0487578325, -0.0087197712, -0.1410501748, -0.1247178316, 0.3264005780,
  -0.0542978980},
 {0.0089572901, -0.0713994950, -0.0216613375, -0.0000314825, 0.1164476648,
  -0.0981975123, -0.2297787517, 0.1314991564, 0.1906746477, -0.1356511265,
  0.0575389825, -0.1271808594, 0.0179631673, -0.0242202524, 0.0685147867,
  0.0992336944, 0.1741555333, -0.0800105706, 0.1576681584, 0.0506860763,
  0.0408172756, -0.0329197273, -0.1394650042, 0.2352066338, 0.0655854866},
 {-0.0484000593, -0.0457479544, -0.0513297096, -0.0193664990,
  0.0604976900, -0.1276444495, -0.1372869015, 0.0139945447, 0.0317342356,
  -0.1020475477, 0.0431377739, -0.0332581624, -0.0053541530,
  -0.0119956946, 0.0882758871, -0.0148100611, -0.0167487785,
  -0.0023534778, 0.0376796015, 0.0918321982, 0.0178141650, -0.0243205037,
  -0.1380704790, 0.0874019042, -0.0268674102},
 {-0.0516312383, 0.0480930693, -0.0023477692, 0.0217732042, 0.1123639867,
  -0.1373534650, -0.1410438567, 0.0148197701, 0.1195070297, -0.0785211623,
  0.0754488707, -0.0037245606, 0.0693497062, -0.0547956899, 0.0335330032,
  0.0774711818, 0.0847614855, -0.0819137767, -0.0372882001, -0.0137780728,
  0.0678216368, -0.0386432819, -0.0330630504, 0.0942254141, 0.0149176363},
 {-0.0484034680, 0.0005560777, -0.0210450627, 0.0617272593, -0.0484402068,
  -0.0693574399, -0.0409269631, 0.0681217015, 0.0984325185, -0.0079579800,
  -0.0586401559, -0.0592018962, -0.0128759434, 0.0951582342,
  -0.0259071849, -0.0209833067, 0.0089610852, 0.0223366860, -0.0463890396,
  -0.0520944968, -0.0670654997, 0.0363836028, -0.0516041107, 0.0346847847,
  -0.0782208443},
 {0.0180816539, -0.0216917619, 0.0118325697, 0.0721287951, -0.0016218580,
  -0.0430413000, 0.0824306011, -0.0878689662, -0.0757832900,
  -0.0865594745, -0.0155019620, -0.0578280762, 0.0046405541,
  -0.0494945794, -0.0297232624, -0.0297970250, 0.0953121260,
  -0.0176507160, 0.0015801254, -0.0321052037, -0.0824125037,
  -0.0021120615, 0.0303451661, -0.0221237838, 0.0509869196},
 {0.0671280324, 0.0641796142, 0.0048467517, -0.0080132931, -0.0168344826,
  0.0740613341, -0.0526309535, -0.0807236359, -0.0593914762, 0.0598782003,
  -0.0741812289, 0.0797022581, 0.0050364733, 0.0421493500, 0.0071100667,
  0.0005983561, 0.0707299411, 0.0348389223, -0.0222828388, 0.0549746156,
  0.0578721613, 0.0598458350, -0.0043384507, -0.0327893682, -0.0489805862},
 {0.0270084515, -0.0755779520, -0.0145177767, -0.0293579996, 0.0480555594,
  -0.0007871762, 0.0164923444, 0.0598323941, -0.0680341944, -0.0785395578,
  -0.0702539831, -0.0231291428, -0.0812050626, 0.0224385336, 0.0729413778,
  0.0249222666, 0.0762926340, -0.0399321467, 0.0141417086, -0.0083137676,
  -0.0472044237, -0.0102371499, 0.0755414814, -0.0069013387,
  -0.0844303891},
 {0.0194564387, -0.0829184353, 0.0157574043, -0.0012305304, 0.0059156567,
  -0.0183879286, 0.0061906874, 0.0605932623, -0.0343519524, 0.0387246534,
  0.0574742854, 0.0185821876, -0.0435128883, -0.0531093180, -0.0616335236,
  -0.0609213747, 0.0259415209, 0.0192428976, 0.0279025137, 0.0659408718,
  -0.0170443431, -0.0840063542, 0.0164203793, -0.0790618435, 0.0796380192},
 {-0.0448552184, 0.0621861368, 0.0262917206, 0.0556517541, 0.0149641559,
  0.0128201097, -0.0121576488, 0.0684341043, 0.0051220134, -0.0667667836,
  0.0667305440, -0.0271142945, 0.0525862128, 0.0501370728, 0.0635882169,
  0.0435299128, 0.0684305727, -0.0327481814, 0.0166909397, -0.0165829360,
  0.0626950860, -0.0244306773, 0.0795027912, 0.0541098118, -0.0088968650},
 {-0.0379121527, -0.0781990886, -0.0170718636, -0.0448649861,
  0.0284685176, -0.0634039938, 0.0705824420, -0.0475989543, 0.0252587255,
  0.0679586381, -0.0121463221, 0.0459036790, -0.0410501100, 0.0559934564,
  -0.0245373398, 0.0515510701, -0.0435645655, 0.0647157058, -0.0833758861,
  0.0501446761, -0.0222966466, 0.0047314181, 0.0436729044, 0.0019873511,
  0.0769428462},
 {0.0395043343, -0.0655585602, -0.0701915696, -0.0852528363,
  -0.0213951245, -0.0122525524, 0.0372244306, 0.0238387994, 0.0347122215,
  -0.0526018851, -0.0096384268, -0.0539574809, -0.0277842209,
  0.0547421053, 0.0423804782, -0.0481712036, -0.0031461208, 0.0207849909,
  -0.0363081135, 0.0809607506, -0.0684201568, 0.0559236556, 0.0804234594,
  -0.0575802922, 0.0136090294},
 {-0.0018464114, 0.0156830736, -0.0837382972, 0.0235249586, 0.0840480477,
  0.0651194081, -0.0851470307, 0.0725980103, 0.0828245357, 0.0129705556,
  -0.0448537916, -0.0035035780, 0.0362981968, 0.0602546073, -0.0305490363,
  0.0147256125, 0.0462299064, -0.0440244302, 0.0182500631, 0.0731667355,
  0.0506182462, -0.0489003882, -0.0022734459, 0.0691718236, -0.0023131366},
 {-0.0396027677, 0.0927408636, -0.0943005830, 0.0764602274, -0.0190969780,
  -0.0479509383, -0.0738760307, -0.0903998017, 0.0037898910, 0.0653315037,
  0.0430978574, 0.0503613949, 0.0533001050, 0.0792683139, 0.0120545300,
  -0.0504118167, -0.0158662405, 0.0585043766, 0.0406163447, -0.0953234434,
  0.0763079897, -0.0837149546, 0.0689519420, -0.0078289872, 0.0748313740},
 {-0.0106572248, -0.0125958808, 0.0588720776, 0.0063142837, 0.0005075304,
  -0.0380592309, -0.0897997841, -0.0699390769, 0.0869918466,
  -0.0388570242, -0.0809792280, 0.0160599444, 0.0335859135, -0.0149609447,
  -0.0210804529, -0.0058845757, 0.0751426816, -0.0233843531, 0.0014737623,
  0.0120229041, 0.0624384023, -0.0650020838, 0.0030534982, 0.0448362157,
  0.0549587533},
 {-0.0118674282, 0.0023850331, -0.0112312501, -0.0896626487, 0.0721514300,
  -0.1619141698, -0.0610781349, -0.0969044045, 0.1328294724,
  -0.1006549299, -0.0217976887, -0.0374658778, 0.0687935129, 0.1225086749,
  0.0612997115, 0.0893628970, 0.0352064818, -0.1214115396, 0.1604275554,
  0.0393715575, 0.2282531112, 0.0758154392, -0.1140778065, 0.1667485386,
  -0.0090205874},
 {0.1053364128, -0.0409520194, -0.0830604061, -0.1989711076, 0.2465116978,
  -0.2297182530, -0.0036042475, -0.0332677774, 0.3375331163,
  -0.2046985477, -0.0780821592, -0.0394360907, -0.0107649220,
  0.2190123051, 0.0450888760, 0.1979527026, 0.0736816227, -0.0243108571,
  0.1551711708, -0.0608082823, 0.2333845645, 0.1118253693, 0.0050492622,
  0.1250900030, -0.0168896820},
 {0.2045810223, -0.1685309857, -0.1641413867, -0.2649679780, 0.2662690282,
  -0.4266870022, -0.0438213497, -0.1053576693, 0.4579570889,
  -0.2782756090, -0.3392388225, 0.0220348574, -0.0983344540, 0.2699528933,
  0.0386228748, 0.1107346416, 0.2492443770, -0.1821115315, 0.0967891663,
  0.1356248558, 0.2673233151, 0.1460349560, -0.0082144365, -0.0332457684,
  0.0055328985},
 {0.1910071969, -0.1694929898, -0.1250119358, -0.4408970773, 0.4119923711,
  -0.4527139366, -0.1441820860, -0.1874134988, 0.6176254749,
  -0.2711114883, -0.2763329446, 0.1526749879, -0.0726776868, 0.2707781494,
  0.1688240767, 0.1784734726, 0.3702731431, -0.0997509733, 0.1801917851,
  0.1643159240, 0.3792851865, 0.0526558757, -0.0205266047, 0.0354046114,
  -0.1010128036},
 {0.1600542963, -0.1023384184, -0.0989123881, -0.3749648929, 0.4113981724,
  -0.3911036253, -0.0963369757, -0.2019370943, 0.6214276552,
  -0.2511386871, -0.2414678335, 0.2767738998, -0.0246978924, 0.2268376350,
  0.1403577775, 0.0860250369, 0.3060361445, -0.0918199345, 0.1746549457,
  0.0661565959, 0.4893255830, 0.0481714457, -0.1105098501, 0.1855078191,
  -0.0479921922},
 {0.1881999969, -0.0555301420, 0.0074192989, -0.6068773270, 0.5784125328,
  -0.5095421672, -0.0849488601, -0.4124805331, 0.7377220988,
  -0.2290192842, -0.3350757658, 0.2612572908, -0.0035285032, 0.3375762999,
  0.1960997880, -0.1166900843, 0.2556892931, -0.1737546474, 0.0393208005,
  -0.1257283539, 0.4900949001, 0.0345150828, 0.0046434645, 0.2319823503,
  -0.0698322058},
 {-0.0794139057, -0.0770104080, -0.0334932506, -0.7070086598,
  0.6929382086, -0.4834367335, -0.2022493631, -0.3091526926, 0.8703204393,
  -0.2747539580, -0.2577058971, 0.1645157635, -0.1067911386, 0.4328248203,
  -0.0021715334, -0.1243801042, 0.1703450382, -0.2494202256, 0.0115550403,
  -0.0756753236, 0.6225977540, -0.0660644919, -0.0199652519, 0.2282938510,
  -0.0417364128},
 {-0.1392576098, -0.0153166112, -0.2103202492, -0.5871158838,
  0.6067953706, -0.3187741339, -0.1700599343, -0.2567440271, 0.8251559734,
  -0.2731080353, -0.0379267111, 0.2299598753, 0.0417070091, 0.3752939105,
  0.1154903844, -0.0131841954, 0.2225486338, -0.2903044820, 0.1951233596,
  -0.0933279023, 0.6227523088, -0.1221990660, -0.1339950711, 0.2904343307,
  -0.1912941784},
 {-0.1760461926, 0.0440692529, -0.0057395208, -0.5366990566, 0.6162580252,
  -0.1369464993, -0.1892959774, -0.1688619554, 0.7916672826,
  -0.0712366551, -0.1364428103, 0.1421968192, 0.1478708237, 0.2975933254,
  0.1026367322, 0.0522569157, 0.0167919286, -0.1394653022, 0.1880672574,
  -0.1421400011, 0.4817232192, -0.0424394682, -0.2534051239, 0.2016306370,
  -0.1378584653},
 {-0.1136884764, 0.0825488046, -0.0125102485, -0.5709842443, 0.4817437828,
  -0.2253885865, -0.2643660903, -0.1834965944, 0.8049103618,
  -0.1581710726, -0.1495255232, 0.2474804223, 0.1527447551, 0.1687746644,
  -0.0253479034, -0.0020112381, 0.0223895144, -0.2017283440, 0.1095658392,
  -0.0059518199, 0.2885950208, -0.1855650544, -0.1497888565, 0.2697961926,
  -0.1477553099},
 {-0.0936588272, -0.0911813825, -0.1010912284, -0.4296001494,
  0.2239336520, -0.1836116612, -0.3992989063, -0.1344353706, 0.7283439636,
  -0.0576639399, -0.1470798552, 0.1343735009, 0.2137646079, 0.2418386489,
  0.0946315750, 0.0492249951, 0.1720647216, -0.3393235207, 0.2105060667,
  -0.0240961667, 0.1278003454, -0.2804887891, -0.1575888246, 0.2842884362,
  -0.1076187044},
 {-0.1604958177, -0.0034612077, -0.2272030115, -0.3891778290,
  0.2134510875, 0.0724199042, -0.4603369236, 0.0079914248, 0.5832043886,
  0.1186616495, 0.2063858658, 0.0675979555, 0.1815617085, 0.0606428050,
  0.0643686131, 0.3256864250, 0.2523573935, -0.2244087309, 0.3377929926,
  0.0116098328, 0.0153924646, -0.3777392507, -0.2605903149, 0.4341426194,
  -0.1923485398},
 {-0.0964106023, -0.0946498439, -0.2331174910, -0.3041377366,
  0.1491086185, -0.0394808277, -0.5234618187, 0.1723799706, 0.5442695022,
  0.1380278766, 0.1711659580, -0.0945757926, 0.3110071421, 0.1201243699,
  0.0786894783, 0.3706196845, 0.2182067931, -0.1170238778, 0.4736275971,
  0.0270587094, 0.0238189902, -0.3112129271, -0.5025861859, 0.4087608159,
  -0.2320064008},
 {-0.0671865642, -0.0916891992, -0.2257166207, -0.2308173031,
  0.1508415639, -0.1478341222, -0.4834007621, 0.1636541635, 0.5719348192,
  0.1236253828, 0.1767622083, -0.0607046299, 0.2636960149, 0.0022962568,
  0.1891323030, 0.4053394496, 0.2395776957, -0.0082709147, 0.3807204366,
  0.1479672641, -0.0722905099, -0.2532266974, -0.4656442404, 0.3317809403,
  -0.0415272750},
 {-0.0034925626, -0.1160588562, -0.2727073133, -0.0431990102,
  0.0131704593, -0.1280513704, -0.4013513625, 0.2114326656, 0.4408427775,
  -0.0087305941, 0.2524467707, -0.1875885427, 0.0470331050, 0.0075691673,
  0.2069351524, 0.3403270543, 0.3655508161, -0.0178085063, 0.3488295078,
  0.1561630070, -0.1086569577, -0.1285289824, -0.3551459908, 0.2070414275,
  -0.0724437088},
 {-0.0588596836, -0.1351676434, -0.2692259550, -0.1259910464,
  0.0301913135, -0.0744765624, -0.2253032029, 0.3051037490, 0.2441281229,
  -0.0550274439, 0.2220501900, -0.1130648181, 0.1233857647, -0.0762369335,
  0.0976354480, 0.3302926719, 0.2259416580, 0.0053771134, 0.2662309110,
  0.1706333458, -0.0221661367, -0.0275092945, -0.3646325171, 0.2437385917,
  -0.1103322282},
 {-0.0012861368, -0.0984941944, -0.1858478636, -0.0521913432,
  0.0294909719, -0.2190751731, -0.1952996403, 0.1701075882, 0.0930533633,
  -0.0430995189, 0.1817365438, -0.1955590397, 0.0064976290, 0.0196238440,
  -0.0104115140, 0.1627555937, 0.0874395594, -0.0170560591, 0.0840538219,
  0.1996343136, 0.0290249567, 0.0077351397, -0.1567808688, 0.1987501383,
  -0.0686016902},
 {0.0577579476, -0.0530562140, -0.1118691862, -0.1074184403, 0.1181002110,
  -0.1082598343, -0.1959728897, 0.1634752899, 0.0149084143, 0.0353489593,
  0.0954423994, -0.1331471205, 0.0601120107, -0.0463774130, 0.1002080739,
  0.0689289868, 0.0685821325, 0.0298095811, 0.1478470266, -0.0247265436,
  0.0873625055, -0.1379906237, -0.1791150868, 0.1225751340, 0.0242039245},
 {0.0430651382, 0.0013105460, -0.0436238386, -0.0786337927, 0.0148529913,
  -0.0038573230, -0.0407395661, -0.0451239794, -0.0200604834,
  0.0264261607, -0.0854004845, 0.0353400297, 0.0484394245, -0.0405126475,
  -0.0105602015, -0.0052470728, 0.0401691757, 0.0117137637, -0.0760036334,
  0.0861502215, 0.0678274855, 0.0131773325, 0.0048681190, 0.0500285588,
  -0.0712828413},
 {0.0326200351, -0.0292087197, -0.0189925954, -0.0826435909,
  -0.0085290698, 0.0223968234, 0.0707901716, -0.0203073248, 0.0002577350,
  0.0118484907, -0.0147397378, -0.0450205505, -0.0559568927, 0.0201392192,
  -0.0663560629, -0.0308363754, 0.0697499886, 0.0629675835, 0.0369435921,
  -0.0413285717, 0.0574902743, -0.0331767611, 0.0149246203, 0.0425499715,
  -0.0097446116},
 {-0.0276202336, 0.0340045393, 0.0215761289, 0.0126973093, 0.0764233321,
  -0.0848423913, 0.0310488269, -0.0383412689, 0.0480462760, 0.0147328749,
  -0.0138107240, -0.0292484388, -0.0579759069, 0.0252674818,
  -0.0719504803, -0.0744076222, -0.0497557484, 0.0716685653, 0.0268058777,
  0.0115836263, 0.0712064058, 0.0074861422, 0.0815946311, -0.0236012265,
  0.0032200441},
 {0.0271343961, -0.0405638479, -0.0597707927, 0.0242065266, 0.0340541303,
  -0.0775733218, 0.0306900218, 0.0759050697, 0.0833691508, -0.0826839134,
  0.0784814954, -0.0047837794, 0.0038610920, -0.0242105275, -0.0204860196,
  0.0670534223, 0.0252604336, 0.0650077909, -0.0318091474, -0.0597563833,
  0.0469552279, -0.0150390789, 0.0633823574, -0.0568516925, 0.0257492140},
 {0.0244375318, -0.0053685033, 0.0421989374, 0.0529048368, -0.0238778219,
  -0.0529685356, -0.0306209587, 0.0489258580, 0.0055343886, -0.0449828058,
  -0.0409190543, 0.0646950081, -0.0642330199, -0.0542341620, 0.0446890667,
  -0.0354235582, 0.0643953010, -0.0818974599, -0.0540995896, 0.0621409975,
  -0.0301757548, -0.0862357393, -0.0384741798, 0.0302153938,
  -0.0299351625},
 {-0.0535282232, 0.0285537150, -0.0450817049, 0.0499918684, -0.0484423339,
  -0.0666711554, -0.0465791039, 0.0816227868, 0.0138603579, -0.0291274711,
  -0.0505521074, 0.0157102402, 0.0594737008, 0.0405934006, -0.0485676713,
  -0.0068434766, -0.0857672244, -0.0107808635, 0.0035406889, 0.0610552542,
  -0.0000639635, 0.0339402556, 0.0412071832, 0.0633221492, 0.0590563118},
 {0.0339766107, 0.0258235894, -0.0707784593, 0.0647930801, -0.0164031498,
  0.0612287447, -0.0375014842, -0.0088294530, -0.0130397193, 0.0580832884,
  0.0774422213, -0.0478681810, 0.0674863383, 0.0494234487, -0.0425146334,
  0.0493243970, 0.0759868920, -0.0497581400, 0.0227160268, 0.0456528142,
  0.0458895192, 0.0626907572, 0.0244584531, -0.0472686291, -0.0214131922},
 {0.0447506830, 0.1059767157, -0.0005347342, 0.0669731945, 0.0250672419,
  0.0103545105, -0.0003373475, 0.0634494498, 0.0844220519, 0.0592241660,
  0.0011843110, -0.0668382347, -0.0441965535, -0.0632720962, 0.0885647982,
  -0.0125042349, -0.0426684693, -0.0032489335, 0.0425327271,
  -0.1072864160, 0.0108709466, -0.0760125369, 0.0601240955, 0.1134043783,
  0.0047411202},
 {0.0474679247, 0.0681788325, -0.0691633448, 0.0311334394, -0.0677649230,
  0.0454193391, 0.0269996449, -0.1196864247, 0.0676280707, 0.0562470369,
  -0.0436713137, 0.0825328827, 0.0183056518, 0.0619788021, 0.1137189865,
  -0.1717803180, 0.1194722056, -0.1266853809, 0.1644968688, -0.1343818307,
  -0.0433554538, 0.0294491239, 0.0485048629, 0.1407803893, 0.1548248827},
 {0.0043149837, 0.0118277054, -0.0654487908, -0.1165195778, 0.0051072240,
  0.0087948078, -0.0983240157, -0.1040512100, 0.0914687887, -0.0981975570,
  -0.1115971059, 0.1171663329, 0.1101699769, -0.0027021421, 0.1101053953,
  0.0429584831, 0.1126086190, -0.0379406735, 0.2028893977, -0.0522106774,
  0.0296881571, -0.1126458123, -0.0529392026, 0.1550322175, 0.1332902163},
 {0.1013087630, 0.1144088432, -0.0401327424, -0.1807927787, 0.0865067691,
  -0.1423090696, -0.1342930645, -0.1957815439, 0.3383217454, 0.0372473598,
  -0.3624032438, 0.1197319925, 0.0763990879, 0.0123408223, 0.0927349776,
  -0.0684849992, 0.1583228707, -0.0999259651, 0.2024738044, -0.1208554804,
  0.1951462179, -0.1025172174, 0.0140242986, 0.1056007445, 0.1319766939},
 {0.1780989319, 0.0644784421, -0.1815700829, -0.3211970329, 0.2692239583,
  -0.2566309869, -0.1527090669, -0.3650183380, 0.3035865426,
  -0.1038658768, -0.5205801129, 0.2044555098, 0.0317206234, 0.0756065622,
  0.0415112674, -0.2137691528, 0.1349387467, -0.1495979428, 0.3144530952,
  -0.0875722095, 0.3501786292, -0.0473685190, -0.0408132076, 0.3014717400,
  0.2115439028},
 {0.2219687849, -0.0396444425, -0.1629977524, -0.2701225281, 0.3248658478,
  -0.1343453526, 0.1372992545, -0.3961008489, 0.3728211522, -0.2483693212,
  -0.5465483665, 0.1925883442, -0.0629586577, 0.0140760271, 0.1428105384,
  -0.2667113841, 0.0980622843, -0.0589263551, 0.1836150736, -0.0934464335,
  0.2408280373, 0.1157066822, 0.1137033850, 0.1117733717, 0.1124549732},
 {0.2433014065, -0.0766497627, -0.0752271712, -0.3119293451, 0.3930508196,
  -0.1186070591, -0.0355916955, -0.3238000572, 0.3251861334,
  -0.1056923643, -0.5087730289, 0.4090627134, -0.0313514397,
  -0.0896709561, -0.0091829048, -0.0997212529, 0.1330857277,
  -0.0085708247, 0.1092192903, -0.1429242343, 0.3871592283, 0.0037135961,
  0.0538716465, 0.1327084154, 0.1145140752},
 {0.3639319837, -0.0275985580, 0.0368964523, -0.3822069466, 0.4233334363,
  -0.0965452045, -0.0520392992, -0.1664353311, 0.1343456954, 0.0180708431,
  -0.5359977484, 0.4978240728, 0.0735719129, -0.1516467780, 0.0090871211,
  -0.1317894310, -0.0639543831, 0.0381158851, 0.1304942816, -0.1718007475,
  0.3913969100, -0.0386902168, 0.1022108942, 0.0988307744, 0.0393625423},
 {0.1164990589, -0.0417694300, 0.0205666739, -0.4233948290, 0.5130686164,
  -0.0352227800, 0.0675392076, -0.2806656659, 0.1879868954, 0.0054316171,
  -0.4179586172, 0.5102444291, -0.0464854836, -0.1616231650, 0.1045359820,
  -0.2352386266, -0.0688867867, 0.1525001973, 0.1860510260, -0.1463861018,
  0.3293265700, 0.1073467284, 0.1217909157, 0.0921802595, 0.0708719790},
 {0.0377932750, -0.0045707002, 0.0104080485, -0.5747575760, 0.4257479906,
  -0.0252061635, -0.0509112291, -0.1833226681, 0.1870828122, 0.0231280662,
  -0.1900707185, 0.2944717407, 0.0238526203, 0.0229053907, -0.0280828979,
  -0.3012942374, -0.3069012165, 0.1075033322, 0.1991158873, -0.1819024086,
  0.4200270176, 0.1144706160, 0.1588723809, 0.1435206831, 0.1083900034},
 {0.0013499343, 0.0121316919, -0.1554488689, -0.5789268017, 0.6740331650,
  0.0360562243, 0.0544898957, -0.1183691919, 0.2556094527, 0.0597093701,
  -0.1968466938, 0.3267581165, 0.0668858290, -0.0031409427, 0.1312619746,
  -0.3121760786, -0.3083892167, -0.0048304689, 0.0666883364,
  -0.0586933978, 0.3533109426, 0.2237676829, 0.0970526189, 0.1004189923,
  0.0492176078},
 {0.0203841534, -0.0457697995, 0.0330797434, -0.4248290956, 0.5982291698,
  0.0481697693, 0.0625956133, -0.1541378349, 0.1647158563, 0.0404875055,
  -0.2303382605, 0.4710101187, 0.0397382118, -0.0718342885, 0.0702314377,
  -0.0766061097, -0.3188043535, -0.0516258702, -0.0817545801,
  -0.1462449729, 0.4820233881, 0.1379903257, -0.0459316224, 0.0581018329,
  0.0239029713},
 {-0.0884171799, -0.0351828411, -0.1833862960, -0.3236522973,
  0.5214645863, -0.0505084842, 0.0326158851, -0.1082267985, 0.3193781674,
  -0.0056617288, -0.0778220817, 0.1832051128, -0.0303232148,
  -0.0734123886, 0.0670833960, -0.0140539091, -0.3621132672,
  -0.0961597636, 0.0170871876, -0.0667741522, 0.4050031602, 0.0773376450,
  -0.0035801195, -0.0364850722, -0.0178819634},
 {-0.0611475594, -0.0174098667, -0.0150024183, -0.1412196904,
  0.4432051182, 0.0121791596, -0.0852621719, -0.0071954471, 0.2479681075,
  0.0549167506, -0.0354092605, 0.1967944652, -0.0022889883, -0.0379497446,
  0.0794365108, 0.0494345352, -0.2720016241, -0.0673090667, 0.0114570903,
  -0.0970261171, 0.2454582304, -0.1432154030, -0.1640168875,
  -0.1260446906, -0.0696822107},
 {-0.0088831056, -0.0617212616, -0.0147757577, -0.1255855113,
  0.3128042519, 0.1911882758, -0.1524703354, -0.0438690521, 0.2903694212,
  0.2244715542, 0.0086171003, -0.0015993421, 0.0474365018, -0.0799011886,
  -0.0767346993, 0.1048296168, -0.1541911811, -0.1427382976, 0.2212519348,
  -0.2066318542, -0.0619249158, -0.2158851773, -0.0848469585,
  -0.1124992818, -0.0516523793},
 {-0.1058226675, -0.0707171336, -0.1547294706, 0.0290064793,
  -0.0183715690, -0.0369088016, -0.3236245215, 0.1276257336, 0.0210665576,
  0.1238671690, 0.0874033049, -0.1342255175, -0.0024148603, -0.0938051045,
  0.0014914229, 0.2555161417, -0.0124980956, -0.1573074609, 0.2733035684,
  -0.0124029340, -0.0763988122, -0.1686441153, -0.0526003800,
  0.0526637323, -0.0635096878},
 {-0.2304258645, -0.1674556583, -0.2279841155, 0.1869547665,
  -0.0008871777, -0.1715940386, -0.1617824435, 0.1241632253, 0.0929027051,
  0.1267721057, 0.1866658479, -0.1526216269, -0.0848033130, 0.0254246686,
  0.0546663702, 0.2387078255, -0.0148795238, -0.2416577041, 0.3060353398,
  0.0419898033, -0.0706815720, 0.0389339775, -0.0040562511, 0.0638196394,
  -0.0131683704},
 {-0.1245289743, -0.1297415793, -0.1721181571, 0.1269804835,
  -0.0499227270, -0.1440840513, -0.3366202116, 0.2000663579, 0.0669185445,
  0.1936212033, 0.3240894675, -0.2337064743, -0.0187294576, 0.1173965111,
  0.0957331210, 0.3041776121, -0.0817106664, -0.0161531046, 0.3189766407,
  0.0318396389, -0.1666554660, -0.0158340391, -0.2757574618, 0.1577209383,
  -0.1760474741},
 {-0.2034440786, -0.0824897364, -0.2492526919, 0.0789179876,
  -0.1639481932, 0.0293960366, -0.2534013689, 0.2958903611, 0.0114887413,
  0.1201444417, 0.3235565722, -0.4532079399, 0.2247679532, 0.1322030723,
  0.0763887316, 0.5155423880, -0.0465664081, -0.0302087329, 0.3406169713,
  0.0100345081, -0.0494773760, 0.1397744268, -0.3757061660, 0.1682245135,
  -0.1428944468},
 {-0.0707889348, -0.1244485751, -0.0544856936, 0.0192422606,
  -0.0275474824, 0.1754551083, -0.1097309887, 0.4122179449, 0.0069359043,
  0.0694100186, 0.3948020339, -0.3486902714, 0.1666921377, 0.1405373216,
  0.2145224512, 0.5544447303, 0.0298100356, 0.0329322070, 0.2390845865,
  0.0313476175, -0.0897842720, 0.1000459418, -0.4752229750, 0.0582057349,
  -0.2362566441},
 {-0.0104860980, -0.0893382952, 0.0265097506, 0.0089098513, -0.0741152763,
  0.0804195926, 0.0279556662, 0.1756590009, -0.0202176608, 0.0637035519,
  0.1202281639, 0.0263329111, 0.1761078238, -0.1281295717, 0.1519550383,
  0.2172911763, 0.0329746343, 0.0087179905, 0.0358918384, 0.0816440433,
  0.0272812266, -0.0626754761, -0.3138605952, 0.0267143641, -0.1336418241},
 {0.0246808492, 0.0143519696, -0.0602337234, -0.0051072245, -0.0117835794,
  0.1237300560, -0.0000020362, 0.0555018894, 0.0165945776, -0.0474196225,
  0.0573458038, 0.1110294685, 0.0112737026, -0.0478441082, -0.0386444479,
  0.0354355983, -0.0097567495, 0.0709371790, -0.0198775083, 0.0390976705,
  0.0544161052, -0.1154744700, -0.0132863848, -0.0633173585,
  -0.0112716155},
 {0.0537437536, 0.0393391922, 0.0379726626, 0.0064335214, -0.0429743342,
  -0.0344740488, 0.0896660164, -0.0143019445, -0.0546494015, 0.0268362369,
  0.0662958622, 0.0590006709, -0.0373863466, 0.0382115804, -0.0796817094,
  -0.0094011854, 0.0084892055, 0.0657649487, 0.0171783008, -0.0271131713,
  0.0991126373, -0.0316010825, 0.0760915950, -0.0404693000, 0.0374026522},
 {0.0349935256, -0.0495634042, -0.0431558155, -0.0425204039,
  -0.0132451626, -0.0209120288, -0.0631821156, 0.0519748479,
  -0.0016773890, 0.0194284506, -0.0247208830, -0.0509138405, 0.0349204876,
  0.0126091735, 0.0331909955, -0.0428207144, -0.0234710500, 0.0636360273,
  -0.0171713494, 0.0377173163, 0.0181248672, 0.0031942595, -0.0784060955,
  -0.0796284825, -0.0274432693},
 {0.0432922095, -0.0637096614, -0.0321628004, 0.0259797275, 0.0035009310,
  0.0623763651, 0.0306391418, 0.0088640153, -0.0592630282, 0.0029942915,
  0.0378513858, 0.0849873573, 0.0755636245, -0.0218370557, 0.0627071112,
  -0.0708324239, -0.0710822046, -0.0066344589, 0.0150341913, 0.0153651759,
  -0.0533604510, 0.0724688172, -0.0688696429, 0.0503211319, -0.0623009317},
 {-0.0045113564, -0.0432561487, 0.0220756605, 0.0577515960, 0.0492196083,
  0.0252658948, -0.0024358705, 0.0552583486, 0.0621222556, -0.0100465044,
  0.0156749934, 0.0376214236, 0.0215431154, 0.0721570700, -0.0680400431,
  0.0520022213, 0.0249513015, -0.0820359141, -0.0547016338, -0.0332096070,
  -0.0100655779, -0.0659964532, 0.0291160047, -0.0407427475, 0.0744336993},
 {0.0135821644, 0.0503330454, -0.0180542469, 0.0694908649, 0.0707444400,
  0.0785913095, -0.0715548396, 0.0100906519, 0.0529248565, 0.0285496041,
  -0.0177473668, -0.0050342930, 0.0067185420, -0.0556662828, 0.0510954261,
  0.0577146932, 0.0259193145, 0.0841725171, 0.0434078127, -0.0221264027,
  0.0284724887, -0.0732307509, -0.0663688630, -0.0007799814,
  -0.0617472157},
 {0.0962804481, -0.0317696631, 0.0679253116, -0.0115967048, -0.0147828329,
  0.0007849704, -0.0601486564, -0.0990758091, 0.0107261417, -0.0104988730,
  0.0174929574, -0.0368732288, -0.0052122972, 0.0320411213, -0.0592675507,
  0.0158269890, 0.0616591983, -0.0011670856, 0.0019750921, -0.0338032320,
  0.0548207462, 0.0061034863, 0.0511280634, 0.0007458098, -0.0470551923},
 {-0.0111083789, 0.1580262482, -0.0525975265, -0.0765416101,
  -0.0205302499, -0.0578890033, 0.0050451648, -0.1743451804, 0.1268451214,
  -0.1052817926, -0.1250488460, -0.0450081304, 0.0855420232,
  -0.0681187660, 0.0720524341, -0.0497282855, 0.0230037011, -0.1150177866,
  0.1559084952, 0.0090588015, 0.0580881462, -0.0662573874, -0.0695723072,
  0.2590903640, 0.1176095307},
 {0.1398636550, 0.1899237782, -0.0655461997, 0.1031239480, -0.1332722902,
  0.1572730839, -0.1910832226, -0.1856866628, 0.1030739024, -0.0638600513,
  -0.1211551428, 0.1284814775, 0.1854573786, -0.0438549928, 0.1324561685,
  -0.3192637861, 0.1514938027, -0.1326105744, 0.1710125804, -0.1486965418,
  -0.1449246854, 0.0117567284, -0.0102211805, 0.3743322194, 0.2061730772},
 {0.1023013666, 0.2016071528, -0.2693174779, -0.0223906804, 0.0012069622,
  0.0275537465, -0.1760999262, -0.2483210117, 0.1134643480, -0.0634158403,
  -0.4197247624, 0.2291531265, 0.1013301164, 0.0482411608, 0.1351675689,
  -0.2864458263, 0.1335011721, -0.1103174984, 0.0793220773, -0.0963976234,
  -0.1121257395, -0.0434414633, -0.0871422365, 0.3290738463, 0.1445264518},
 {0.0851672888, 0.0714045241, -0.2757866979, -0.0636581779, 0.0638164952,
  0.0628245249, -0.1796325147, -0.1872595996, 0.3185321391, -0.0668397322,
  -0.5459043980, 0.2565487921, 0.1433012784, 0.0360031165, 0.1613676250,
  -0.2182985991, 0.2807150483, -0.0999885872, 0.1507430524, -0.2182442844,
  0.0509585217, -0.0090562431, -0.2290066779, 0.0789918676, 0.1066448316},
 {0.0823485032, -0.1440189183, -0.3846041858, -0.0815140828, 0.0138324257,
  -0.0340314172, -0.0041553350, -0.0910899267, 0.2737447023,
  -0.0277927388, -0.7777615786, 0.2933220565, 0.1408992410, -0.0385430083,
  0.0748430565, -0.0781999230, 0.2368725687, -0.1417272538, 0.1720506698,
  -0.0458044559, 0.1925766915, -0.0058320491, -0.2111971080, 0.1174247190,
  -0.0880672410},
 {0.1286487281, -0.1558603346, -0.3986959159, -0.1499405354, 0.0816471726,
  -0.0320385844, -0.0113011878, -0.2120931298, 0.1418039948,
  -0.0307562016, -0.6280111074, 0.2292450815, 0.0916234106, -0.0637504235,
  0.1549110115, 0.0196809527, 0.1716535389, -0.0671042204, 0.0535324812,
  -0.0495773815, 0.1140719801, 0.1135654449, -0.1240172908, 0.0221052356,
  -0.0275835209},
 {0.1801738590, -0.1124712452, -0.2491490990, -0.1343370974, 0.2350939363,
  -0.0102253295, 0.0878384709, -0.1308607608, 0.1620906442, -0.0043911827,
  -0.5358442664, 0.2641125321, 0.0803272948, -0.1436623335, 0.0308865011,
  0.0230285898, 0.1906852275, -0.0360323042, 0.2401378304, -0.0683248788,
  0.2677938640, 0.0602522418, -0.0724093318, 0.0523243658, -0.1169828176},
 {0.3946410716, -0.2397389263, -0.0217487179, -0.2049446553, 0.1551245898,
  -0.0302084573, 0.0855946913, -0.1656514555, 0.0506406873, 0.0019181673,
  -0.2410098612, 0.3195061386, 0.0674811974, -0.2479653656, 0.0199859329,
  -0.1680759341, 0.0972412601, 0.2093217671, 0.1113900915, 0.0529696718,
  0.1302386671, -0.0554093868, 0.0458710454, -0.2083914280, -0.1418988109},
 {0.3686601520, -0.2678265870, -0.0366566218, -0.2056308240, 0.1759878993,
  0.0899375603, 0.0847786814, -0.1583486795, -0.1114336327, -0.0560889393,
  -0.1746888906, 0.1688750237, -0.0608413927, -0.1264861673,
  -0.1270420551, -0.2227225304, -0.1244170815, 0.1291533560, 0.2378282100,
  0.0590497330, 0.2662922740, -0.0421739779, 0.1018358022, -0.0277606137,
  -0.1801676601},
 {0.3448846340, -0.2561682463, -0.0223204084, -0.1815742850, 0.3142706752,
  0.0114824791, 0.0865563601, -0.1933901459, -0.0985961109, -0.0566294417,
  -0.0332483687, 0.1876010746, -0.0369948559, 0.0690693855, -0.2601741552,
  -0.2864764333, -0.2843107879, 0.1047112346, 0.0161559880, -0.0149269383,
  0.3822056651, 0.0244526248, 0.1267390847, 0.0234246943, -0.1423134357},
 {0.1691478938, -0.1835076660, -0.1710331142, -0.0957889631, 0.1625895351,
  -0.0930653811, 0.0612347685, -0.0057529253, -0.0165584609,
  -0.0665569305, -0.0436374322, 0.2443704456, -0.0176690053, 0.1464983970,
  -0.0589742213, -0.2579619884, -0.2399840504, -0.0281893294,
  0.0741644129, 0.0194267482, 0.1883087456, 0.1418088973, 0.1198384687,
  -0.1205446497, -0.1408912987},
 {0.0875854045, -0.2481104434, -0.1761458516, -0.0702900290, 0.0170482416,
  0.0674656183, 0.0044933637, -0.1726009101, -0.0162876286, -0.1299141645,
  -0.1408081502, 0.2229437530, 0.0806300044, 0.1179554239, 0.1087585315,
  -0.3482356966, -0.3058570921, -0.1639505327, 0.1354997307,
  -0.0847614110, 0.2842468619, 0.0991146192, 0.0356473438, -0.1191888526,
  0.0003011418},
 {0.2404775918, -0.2263446003, -0.3780988157, 0.0136743896, 0.0948987454,
  0.0628349036, -0.0613187216, -0.0389975272, 0.1256191730, -0.1287114471,
  -0.2097491473, 0.3136551976, 0.0983957723, 0.0035291591, 0.1575975865,
  -0.1994754970, -0.3616352975, -0.2011800259, 0.0924595818,
  -0.1501970589, 0.3326668143, -0.0753222629, -0.1042045578,
  -0.1610810757, 0.0341240913},
 {0.1966635287, -0.2091487348, -0.3426224887, -0.1696154624, 0.1485571563,
  -0.0166952070, -0.1223765016, 0.0928992704, 0.1058753058, -0.1864940524,
  -0.0760545880, 0.3428793848, 0.0471151322, 0.0760948211, 0.1917536706,
  -0.0112064965, -0.4044618011, -0.0735235065, 0.0920142978, 0.0098570902,
  0.2979137301, -0.0945527628, -0.0296474118, -0.3001487851, 0.1143656597},
 {0.0671613440, -0.1242628396, -0.0845135376, -0.0808030665, 0.1866925508,
  -0.0380932204, -0.0625640899, 0.0343353525, 0.0051172413, -0.1135757416,
  -0.0490844063, 0.0565391183, 0.0865189657, 0.0259284750, 0.2087472826,
  0.0657521933, -0.3920985162, -0.0964968950, 0.2208374143, -0.0368601270,
  0.2483816445, -0.1980013996, -0.0308466982, -0.3005913198, 0.0553130247},
 {0.1664088368, -0.0897842273, -0.1337091923, -0.1018601805, 0.1717143059,
  0.0931556448, -0.1715464294, 0.0685562193, -0.0209009014, -0.0793289840,
  0.0954768062, 0.0072073760, 0.0769152641, 0.1221060678, 0.0523336828,
  0.0614289977, -0.3760346174, -0.2002321482, 0.2801318765, 0.0498887151,
  0.2743705213, -0.3404141963, -0.0802649483, -0.1367176324, 0.0750942156},
 {-0.0041430593, -0.1146146059, -0.1616628021, -0.0723558813,
  0.0592774861, 0.1132020950, -0.0289157033, 0.1051810384, -0.0784806460,
  0.0358990096, 0.1807135940, -0.0438928492, 0.0104053877, 0.0130447205,
  0.2440357804, 0.1121932790, -0.2699705064, -0.1393742710, 0.2630674839,
  -0.0411579125, 0.2335996926, -0.1435838342, -0.0370826460,
  -0.1719921827, 0.0681003183},
 {-0.0580735654, -0.2461149842, -0.1697141379, -0.0059899492,
  -0.0452026650, 0.0106171854, 0.0400796570, 0.1843807846, -0.1862937361,
  0.0479593277, 0.1157946512, -0.2099618465, -0.0694664270, 0.2145128101,
  0.1571595371, 0.2466764003, -0.3923562169, -0.1550356150, 0.0573629327,
  0.0512793623, 0.0295410547, -0.0406722724, -0.0550678298, -0.1290321350,
  -0.0842817128},
 {-0.0451804511, -0.2431642711, -0.0396653935, 0.0584406592,
  -0.0667850152, 0.2139108479, 0.0344426483, 0.2611852586, -0.2823195159,
  0.0617578477, 0.2535176575, -0.2526208758, 0.0790122598, 0.2893810868,
  0.1946253777, 0.3715230227, -0.3939970732, -0.1817484647, 0.0096396478,
  -0.0867844373, -0.0039899871, 0.1451586634, -0.2886214554,
  -0.0580361523, -0.1600899100},
 {-0.3114349246, -0.1819056422, 0.0314204767, 0.1195706204, -0.1847540885,
  0.4089417458, 0.0069215153, 0.3034937680, -0.3416505158, 0.0520149693,
  0.3928996623, -0.3960071206, 0.1729829162, 0.2613266408, 0.3815748692,
  0.5352329612, -0.2079984695, -0.0629579127, 0.2372348309, -0.0941540599,
  -0.1927719712, 0.2512313128, -0.4562627077, -0.1882651597,
  -0.2106629610},
 {-0.0968269706, 0.0247617457, 0.1384797841, -0.0144175291, 0.0171871744,
  0.4051679373, 0.0955488309, 0.1903853416, -0.1197394282, 0.1654512137,
  0.2391461879, -0.1593109518, 0.1864801794, -0.0153273894, 0.3675582409,
  0.3188620508, -0.2244097441, -0.0821198449, 0.1428951472, -0.1668472439,
  -0.1030408889, 0.0562216714, -0.5229650736, -0.0649965256,
  -0.1484158337},
 {0.2110501081, -0.1423679143, 0.1030918285, -0.1017694175, 0.0268755946,
  0.2374133319, 0.0285365973, 0.1938333064, 0.0387963280, 0.0920469016,
  0.0460945256, 0.0213449430, 0.0703915134, -0.1541685164, 0.2165067494,
  0.0215416513, -0.0722525418, -0.0629685521, -0.0542034395,
  -0.0706014633, -0.0652439669, -0.1553879380, -0.2073005140,
  -0.1626098454, -0.0950715020},
 {0.0162980985, -0.0804502591, -0.0007113562, -0.0145683810, 0.0720436051,
  0.0515078157, 0.0959416479, 0.0202850942, 0.0376823023, -0.0240266696,
  0.0905797854, -0.0246611070, 0.0095229438, 0.0002098294, 0.0530840680,
  0.0802686661, 0.0290458500, -0.0402779095, -0.0067576142, -0.0983125791,
  -0.0230840594, -0.0776524395, 0.0498550236, -0.0859064609,
  -0.0756533369},
 {-0.0083570806, 0.0072721746, 0.0833023712, 0.0686428770, -0.0789036602,
  -0.0051235044, -0.0240828004, 0.0577782169, -0.0086892750,
  -0.0337984674, -0.0358941332, -0.0024850047, -0.0015372416,
  0.0302936081, 0.0573755167, 0.0052130455, -0.0096857771, -0.0223978292,
  0.0455803126, 0.0382901765, -0.0627236515, 0.0150056789, 0.0345434770,
  -0.0543098710, -0.0220422857},
 {-0.0667231753, -0.0198828727, -0.0211187899, 0.0688774884, 0.0264739692,
  -0.0010413229, -0.0674902499, 0.0483478159, 0.0360960215, 0.0774738044,
  -0.0313878842, -0.0511049591, -0.0259581096, 0.0023991764, 0.0055856183,
  0.0201631263, -0.0016061366, -0.0504641198, 0.0667993873, 0.0293782428,
  -0.0285258181, -0.0457419157, -0.0417225398, 0.0282647461,
  -0.0001272634},
 {-0.0636170134, 0.0838508382, 0.0495700687, -0.0666224211, 0.0551186725,
  0.0819367990, 0.0691637993, -0.0629996359, 0.0477990471, -0.0260147378,
  0.0634011477, -0.0360260978, 0.0787638873, -0.0687600002, -0.0241411868,
  0.0518106855, 0.0736433491, -0.0540389381, -0.0065959990, 0.0736151561,
  -0.0666616037, 0.0573876500, -0.0593357682, -0.0295118038, 0.0078767100},
 {0.0493577905, 0.0487966985, -0.0411897711, -0.0608564243, -0.0123600187,
  0.0000163377, 0.0289830342, 0.0785392821, -0.0441078097, -0.0262378771,
  -0.0357066430, -0.0610885099, 0.0854117498, -0.0890827477, 0.0398196131,
  -0.0452798419, 0.0371158347, 0.0663889572, 0.0403736867, 0.0435447022,
  -0.0779903531, 0.0845842734, -0.0415583253, -0.0399233550, 0.0393893346},
 {0.0682140887, 0.0561321452, 0.0809893012, 0.0286172032, -0.0053393892,
  -0.0431845486, -0.1220880523, 0.0031250915, 0.1342203021, 0.0501596183,
  -0.0468269698, 0.0185162071, 0.0661834553, -0.0999573097, -0.0351356566,
  -0.0728397518, 0.0749054179, 0.0103231231, 0.0117937727, -0.0971401334,
  0.0283239502, -0.0965542942, -0.0736441836, 0.0551752262, 0.0858847052},
 {0.0709802434, 0.1291189939, -0.1606393009, -0.0365927070, 0.0051515792,
  0.1413649768, -0.1557263583, -0.0849406347, 0.1712368429, -0.0005296093,
  -0.1182093322, 0.1426599622, 0.0176458117, 0.0902628303, 0.0985853970,
  -0.3382088244, 0.2190972567, -0.2046606094, 0.1837240010, -0.0150990048,
  -0.0806771070, -0.0841936097, -0.0493596084, 0.2831510901, 0.1619815677},
 {0.1236100718, 0.1849888414, -0.2390889078, 0.0745147169, -0.1304382682,
  0.0632216856, -0.2489505112, -0.1243883148, 0.1390679330, -0.1000713482,
  -0.3072051108, 0.3462685049, 0.1529686600, -0.1124104708, 0.0778259709,
  -0.2667226493, 0.2237071842, -0.1657886207, -0.1282022297,
  -0.1388669759, -0.1028354242, -0.0055504185, -0.1326238513,
  0.1061954573, 0.2745684087},
 {0.1059090197, 0.1671978980, -0.3645782173, 0.1031443253, -0.0817592070,
  0.0137744118, -0.0760343373, -0.1509513557, 0.2235663831, -0.0615437254,
  -0.5227894187, 0.4240393341, 0.0989344195, 0.0370045826, 0.0573647916,
  -0.1392148584, 0.3720965981, -0.2121571451, -0.2110463381,
  -0.1706142426, -0.0281440951, 0.1357283890, -0.1189049333, 0.2517542839,
  0.1915666610},
 {0.1168584600, 0.0346241631, -0.3878687322, -0.0077138622, -0.0284261927,
  0.0168520380, -0.0843221545, 0.0396633744, 0.2355457991, 0.0283818711,
  -0.7145519853, 0.3886885345, 0.0626557097, 0.1248490214, 0.1015889570,
  -0.0012915350, 0.4336752594, -0.2332327962, -0.1580512226,
  -0.0374979712, -0.0170674343, 0.2836635113, -0.2675850391, 0.1186103374,
  0.1362461448},
 {0.2450307608, -0.0122691253, -0.3022049069, 0.0311473086, -0.0105141196,
  -0.0060975458, -0.0793379396, -0.0448321402, 0.2139907330, 0.0972785279,
  -0.8616801500, 0.3517820239, 0.0901603177, -0.0744200498, 0.1010194868,
  0.0759375393, 0.3468291163, -0.0640322566, -0.0187479425, -0.0434893109,
  -0.1135644764, 0.1693952978, -0.1656807363, 0.0151877794, 0.0776421130},
 {0.3616213799, 0.0353082791, -0.1283739507, -0.0079467008, 0.0606441498,
  -0.0903260857, -0.0598654673, 0.0121735577, 0.2954389155, 0.2556134462,
  -0.5654993057, 0.1702966243, 0.0754961371, -0.1515325457, 0.0679317489,
  0.0100119337, 0.2005973458, -0.0951936245, -0.0315585472, 0.0307109561,
  -0.1051281467, 0.1513488442, -0.1793081909, 0.1039341837, -0.1376841962},
 {0.2531096041, -0.1055347919, 0.0590121858, -0.1369190216, 0.0192626584,
  0.0424182080, -0.0128828567, -0.0971603915, 0.2253852487, 0.1219622940,
  -0.3586781919, 0.2671594918, -0.0224290490, -0.1310151368,
  -0.0910735428, 0.0544134341, 0.1341913790, 0.0051434259, 0.0081117172,
  0.0510613918, -0.0285486635, 0.1785460562, -0.0334730856, 0.0399020165,
  -0.1425899416},
 {0.3859115243, -0.0415486395, 0.1753479838, -0.0450167544, 0.0301097445,
  0.1121283695, -0.0188512541, -0.2289716005, 0.1034462154, 0.1734199375,
  -0.2336742431, 0.2914697826, -0.0617843494, -0.1894304007,
  -0.1383683234, -0.1122532114, 0.1108292490, 0.0478384309, -0.1165415943,
  -0.0746259764, -0.0324289948, 0.0391049013, 0.0045181573, 0.0190982260,
  -0.2791757584},
 {0.4558206201, -0.1248165891, 0.1555252969, -0.0950164050, 0.1284364611,
  -0.0496340171, -0.0416812897, -0.2112307549, 0.0529554486, 0.1840419620,
  -0.0678495094, 0.1590733230, -0.0427660905, -0.0887381285,
  -0.1065371782, -0.0968065411, 0.0778331459, 0.1144546121, -0.0326815844,
  0.0062442017, -0.0269049592, -0.0856303424, -0.0173938777,
  -0.0744454339, -0.2254347801},
 {0.5687792897, 0.0232216567, 0.2319239527, -0.1179372966, 0.0802436769,
  -0.0930015668, -0.0082276752, -0.2430094033, -0.0704614520,
  0.2324198782, -0.0079541961, 0.1064337194, 0.0325322710, 0.0278814472,
  -0.3625963628, -0.2123130709, 0.1837913394, -0.0804069713, 0.0004186951,
  -0.0028137600, -0.1520123035, -0.2347070724, 0.0648934022, 0.0589383841,
  -0.2419992238},
 {0.5743436813, -0.0487661995, 0.1662009954, 0.0152749624, 0.0629084930,
  -0.1484956145, 0.0755806118, -0.3412075937, -0.0213688277, 0.0659098327,
  0.0359739587, -0.0041218610, 0.1206111610, 0.0761546642, -0.2155088335,
  -0.2196156234, 0.1572703868, -0.0748987570, 0.0569495820, -0.0169076622,
  -0.2579424977, -0.1776221693, -0.0617722124, -0.1435842365,
  -0.2060879767},
 {0.5712326169, -0.0812912658, 0.0092466613, -0.0760837942, 0.0903038681,
  -0.2346170843, 0.1080658287, -0.2103628367, -0.0548089109,
  -0.0099074468, -0.0117663825, 0.0515838489, 0.0431872122, 0.0328601748,
  -0.2590406835, -0.2714444995, 0.1438887268, -0.1187608689,
  -0.0217691679, 0.0469032116, -0.1141271293, -0.2719244361, 0.0658178553,
  -0.1541919410, 0.0320972949},
 {0.5736454725, -0.0372405648, 0.1959203184, -0.0631593540, 0.0769750401,
  -0.1063503176, -0.0060642199, -0.2150804102, -0.1491076499,
  -0.0025406189, -0.1436904967, 0.1061747000, -0.0014974305,
  -0.0138815567, -0.2930131257, -0.2990698218, 0.2341368645,
  -0.0745364726, -0.0611651242, 0.0161504559, -0.1359299570,
  -0.3961235285, 0.0434918404, -0.1918660253, 0.0125722522},
 {0.5638603568, -0.0575327575, 0.2379428148, 0.0945884660, 0.0685177296,
  -0.1491611004, 0.0050101327, -0.0081538158, -0.0937956795, 0.0276524276,
  -0.1091824844, 0.1916424036, 0.1032760516, -0.0462608337, -0.2402965724,
  -0.1633767486, 0.0987134799, -0.0882096738, 0.0554904118, -0.0868858770,
  -0.1734250039, -0.3887237906, -0.0042017340, -0.1582801044,
  0.0499825664},
 {0.4153298438, -0.0591386817, 0.2625206411, 0.0122138346, 0.0359545462,
  -0.2065687031, 0.0514227934, -0.0846087784, -0.1156344116,
  -0.0536042340, -0.0899440497, 0.1390951872, 0.2224244326, 0.0404556580,
  -0.1881771833, -0.0519832708, -0.1481694281, -0.0948523059,
  -0.0787146688, -0.1095161289, 0.0169966761, -0.3571024835,
  -0.0268508662, -0.1486300528, 0.0132601345},
 {0.1345290542, -0.1145919636, 0.1650676876, -0.0258867033, 0.0933963284,
  -0.0096535040, -0.0616125204, 0.1063326448, -0.2561247647, 0.0004637236,
  0.0368702598, 0.0868294910, 0.0363861397, -0.0051342067, -0.0503457598,
  0.0766165927, -0.1928549111, -0.0041764090, -0.1186444908,
  -0.0671588704, -0.1128086299, -0.2963912487, 0.1116126478,
  -0.2090357989, 0.0351609029},
 {0.1114347503, 0.0215182528, 0.0909891203, -0.1250392646, -0.0052401992,
  0.1286273450, 0.0751005635, 0.0726409405, -0.1129453182, 0.0720587522,
  0.1494954228, -0.0933141187, 0.0372040384, 0.1361990273, -0.0872236118,
  0.1108711287, -0.2336475402, -0.2560931742, -0.0641554371,
  -0.1400712729, -0.0238195043, -0.3129016459, 0.0115134986,
  -0.1172921807, -0.0165836345},
 {0.1653984189, -0.0746757016, 0.0639121607, -0.0832168236, 0.0223368946,
  0.0891055018, 0.0049292985, 0.1073140278, -0.1369328648, -0.0783303678,
  -0.0047139367, -0.0635997131, 0.0042243898, 0.1489993632, -0.0114018898,
  0.1679099500, -0.2036934048, -0.2861433327, -0.1387205571, 0.0188415125,
  -0.0298159160, -0.1837844998, 0.0707352161, -0.2867546678, 0.0619786084},
 {-0.0532217920, -0.2154388726, 0.0387095474, 0.0439334549, 0.0729612857,
  0.2052545398, 0.1585508138, 0.2100767791, -0.3198722303, -0.0232468452,
  0.0843604878, -0.0687781200, -0.0609976463, 0.1948585957, 0.1966698468,
  0.3181818426, -0.3809223175, -0.1316716820, -0.0373071581, 0.1234253794,
  -0.1501081437, 0.0566766337, -0.0592989400, -0.3471135795,
  -0.0971075520},
 {-0.2953072488, -0.1441242993, -0.1150156036, 0.0812755674,
  -0.0394753516, 0.6764639616, 0.1780839413, 0.3476938903, -0.3439367115,
  0.1326483190, 0.2768450081, -0.1140009314, -0.0596862249, -0.0379543416,
  0.5141453743, 0.3816580474, -0.6291433573, -0.0031763446, 0.0294978302,
  -0.0850608647, -0.0836306065, 0.0565923639, -0.2865675986,
  -0.4102479219, -0.1775064766},
 {0.0135639356, 0.0661264509, 0.1058087572, -0.0520232767, 0.0365211926,
  0.7613142729, 0.2911735773, 0.3568136692, -0.2232380360, 0.2353367060,
  0.3650626540, -0.0062088538, 0.2142848223, -0.1665803790, 0.5672731400,
  0.2884988189, -0.4628947377, 0.0054690894, 0.0216859039, -0.2971282005,
  -0.1344427764, 0.0142219448, -0.5035576224, -0.3081049919,
  -0.3152615130},
 {0.1131399423, 0.0124455569, 0.1775285751, -0.1689543575, 0.1965561360,
  0.3512462974, 0.2186650783, 0.1878436506, 0.0115115438, 0.2271376550,
  0.2235234976, -0.0063791848, 0.1643635333, -0.3034960330, 0.3334662318,
  0.0028953063, -0.1324711889, -0.0238567777, -0.0019540130,
  -0.1324588656, -0.0985583737, -0.1857015789, -0.3695397079,
  -0.2766898870, -0.1118498743},
 {0.1053265482, 0.0139105311, 0.0819603428, -0.0231490768, 0.0790552199,
  0.0805604383, -0.0306693576, 0.0766021311, -0.0353005528, 0.1777483374,
  0.0955640972, 0.0556582324, 0.0626679733, -0.1084814444, 0.1905376315,
  0.1201533973, 0.0222101137, -0.0176543873, -0.0637773275, -0.1750833988,
  0.0535949767, -0.0241647419, -0.1364120841, -0.0251757856, 0.0340351500},
 {0.0125663122, -0.0677415431, -0.0728368312, -0.0812721699, 0.0511303060,
  0.1108397096, 0.0107966661, -0.0599575043, 0.0251263864, 0.0246951077,
  0.0036321338, 0.0277535524, 0.0794681236, 0.0733201355, -0.0450985879,
  -0.0423637219, -0.0891600922, -0.0395235457, -0.0038315705,
  -0.1083854139, 0.0555302240, 0.0349901877, 0.0484767519, 0.0400972962,
  -0.0675922260},
 {0.0713020042, 0.0276260339, 0.0385250971, 0.0512757152, 0.0520312898,
  0.0806691870, -0.0556374118, -0.0262829401, -0.0092746885, 0.0608341321,
  -0.0126561997, 0.0828156397, 0.0820816010, 0.0346206352, 0.0112328250,
  -0.0038846531, -0.0529275723, 0.0317806713, -0.0567485467, 0.0552783683,
  0.0126465997, 0.0840234384, 0.0515556596, -0.0486582592, 0.0448594764},
 {0.0499535948, 0.0308808256, -0.0162025150, -0.0623484030, -0.0356562138,
  -0.0721109211, 0.0644623712, -0.0195007175, -0.0365885235,
  -0.0625557080, -0.0078319255, -0.0512192622, -0.0825253204,
  -0.0220549274, -0.0401852354, 0.0332050547, 0.0690167248, -0.0261803102,
  -0.0493410900, 0.0573303774, -0.0842629224, -0.0315311663,
  -0.0623216219, 0.0863970444, 0.0325274803},
 {-0.0619317703, -0.0490533225, -0.0628382266, 0.0686386898, 0.0448654145,
  -0.0008646249, 0.0879170746, -0.0078165401, 0.0601093732, -0.0236191787,
  -0.0315729976, 0.0836064443, -0.0064555597, 0.0648405701, 0.0306146052,
  0.0444216803, 0.0643154681, -0.0970075727, -0.0463904664, 0.0819466859,
  -0.0060712858, 0.1291728914, -0.0251464825, -0.0909695476, 0.0818932131},
 {0.1055819392, 0.2823598385, -0.0085572787, 0.0740230307, -0.0336415693,
  0.0525220819, -0.1338233054, 0.0339752585, 0.1740242690, 0.0725171492,
  -0.1375924647, 0.0367168002, -0.0177123453, 0.0067769457, 0.0551050194,
  -0.2467210442, -0.0222685095, -0.1315336674, -0.0385323279,
  0.0403532349, -0.1140931174, 0.0762597397, -0.0130672129, 0.0613215119,
  0.1992996335},
 {0.0953175724, 0.2340537161, -0.3247293532, 0.0492470376, -0.0280100219,
  0.0514958799, -0.1710068882, -0.1266563982, 0.3723018467, -0.1548383683,
  -0.3053892255, 0.1550753266, -0.0113384118, -0.0161315445, 0.0867632776,
  -0.5316400528, 0.2008873522, -0.3161476254, 0.0373346172, -0.0500777960,
  0.0361914113, -0.0413796194, -0.0361939408, 0.3489961922, 0.3978115618},
 {0.0532841571, 0.2790049613, -0.4694296122, 0.0276037585, -0.0239812229,
  0.0794572830, -0.1000070721, -0.0533284508, 0.2787391543, -0.1301864982,
  -0.3726677895, 0.3127650619, -0.0095435614, 0.0037017851, 0.1769148856,
  -0.4414798915, 0.1476850659, -0.2037232965, -0.0751977712,
  -0.0481315628, 0.0029455866, -0.0234536417, -0.0053776060, 0.1839338392,
  0.4804273546},
 {0.1168098897, 0.1960106343, -0.4311190844, 0.0850116834, -0.0030245904,
  0.0172451921, -0.1152691245, 0.0356638283, 0.3278026879, -0.0445415080,
  -0.6268961430, 0.4301588833, 0.0535595231, 0.0303049274, 0.0124069303,
  -0.1358986497, 0.1444714963, -0.2459569722, -0.1677843034,
  -0.1059399098, -0.0746011510, 0.1536049396, -0.0658441931, 0.0650757179,
  0.1812606305},
 {0.2539358437, 0.1192731932, -0.2917141914, -0.0328705497, -0.0518279821,
  -0.0465023182, -0.0460695475, 0.1851703674, 0.2429183125, 0.0305352639,
  -0.7101024389, 0.2825589180, -0.0704241320, 0.0517109074, 0.0172722414,
  0.0629971549, 0.0932522118, -0.0547588952, -0.1851740777, 0.0540773273,
  -0.1794031560, 0.2757399678, -0.0551928058, 0.0847757757, 0.1053965688},
 {0.3242978454, -0.0268620495, -0.0427875295, -0.0904388502, 0.0464891680,
  0.0855871812, 0.0143761216, 0.1422406584, 0.2689027190, 0.2677679360,
  -0.7619170547, 0.2111096084, -0.1017415449, -0.1023966372,
  -0.0740984827, 0.1359403878, -0.0907218307, -0.0191945042,
  -0.1533122659, 0.1357944906, -0.2667260468, 0.0676284283, -0.0804182589,
  -0.0926505625, -0.0599996410},
 {0.4271136224, -0.1016692072, -0.0213110019, 0.0202035513, 0.0290609915,
  0.0614968129, 0.0254510846, 0.2138646692, 0.2276050150, 0.2276012152,
  -0.5276109576, 0.2199657112, 0.0181332417, -0.0513860583, -0.0440344512,
  0.0763436034, 0.0075191404, -0.0997079834, -0.1774052680, 0.0435393043,
  -0.2581849992, 0.2002188861, -0.0687742010, -0.0406685919,
  -0.1339698583},
 {0.3860472143, 0.0469009541, 0.0361993872, -0.0486173816, 0.0398697183,
  0.0545441844, -0.0120276799, 0.0200955383, 0.1949115545, 0.1836427152,
  -0.1757103056, 0.2579252720, -0.1165108159, -0.1202621087,
  -0.1682253331, 0.1241067052, -0.1291447580, -0.0521261543,
  -0.0344209000, 0.0663964450, -0.2800719738, 0.0759612694, -0.0347291529,
  -0.1223566085, -0.1156219169},
 {0.4444904923, 0.0012537909, 0.1253680140, -0.0211690739, 0.0258765034,
  0.0058774380, 0.0721613094, -0.1744003147, 0.2155065686, 0.1727405339,
  -0.0476932339, 0.1571350247, -0.0125922449, -0.1106592640,
  -0.0860977396, -0.0080798520, -0.0043387949, -0.0959291980,
  -0.1402520686, 0.0915737748, -0.2521440089, 0.0937970430, -0.0408724695,
  -0.1949377358, -0.1320943683},
 {0.5301823020, 0.0779409036, 0.4030526280, -0.0421267524, -0.0633288026,
  -0.0496526435, 0.0655893609, -0.2421743423, 0.1660338044, 0.2476708591,
  -0.0425995700, 0.2021536976, -0.0167702362, -0.1191230044,
  -0.3489204943, -0.0132872574, 0.1078568920, -0.1509724110,
  -0.0760211721, -0.0883493796, -0.1396919787, -0.0556402653,
  -0.0044042342, -0.0388850830, -0.2754157782},
 {0.4844217598, 0.0992413536, 0.3490877748, -0.0898406208, -0.0737127513,
  -0.1256333590, 0.1457834244, -0.3365154564, 0.0680954009, 0.2098563910,
  -0.0536287539, 0.1468096524, -0.0015108450, -0.0165554509,
  -0.2453831434, -0.0955078304, 0.3211680949, -0.1697384566,
  -0.1064522043, 0.0112078628, -0.2418040037, -0.2028205842,
  -0.0491997376, -0.1426190734, -0.2722020447},
 {0.5355174541, 0.0871863291, 0.3746869862, -0.0382595435, 0.0408107266,
  -0.3275626898, 0.0908101276, -0.4726835191, -0.0941534415, 0.1420576125,
  0.1275090575, -0.0748807341, 0.1332620233, 0.0851347968, -0.4269218147,
  -0.1927988827, 0.2486075610, -0.2569473088, -0.1038502455,
  -0.0254963189, -0.3351891339, -0.3586294651, 0.0264077689,
  -0.0833754539, -0.3105681837},
 {0.6882687807, 0.0803665817, 0.3617972136, -0.1658406556, 0.1542515904,
  -0.3230697811, 0.1341664493, -0.2027171254, -0.1236206740, 0.1071509570,
  -0.0440428630, -0.0517648458, 0.0058386405, -0.0805757418,
  -0.4864726961, -0.2570576668, 0.3230417073, -0.1661743373, 0.0364217162,
  0.0505481549, -0.3660214245, -0.4646186829, 0.0249505881, -0.0431800969,
  -0.1921951473},
 {0.5536453128, 0.0812742114, 0.3480687439, 0.0120947715, 0.1021232009,
  -0.2560958266, 0.0909711197, -0.1272742599, -0.1965575516, 0.1288899630,
  -0.1181832775, -0.0620031059, 0.0462599099, -0.0979973003,
  -0.3655292094, -0.1040155739, 0.1046650484, 0.0312010739, -0.1077313647,
  0.0425504446, -0.2551149428, -0.3570788205, 0.0810899958, -0.1028264761,
  -0.0540831983},
 {0.3733509779, 0.1448640227, 0.3824423552, 0.1461869478, -0.0707291588,
  -0.1353807598, -0.0930184126, -0.0733846650, -0.1471705437,
  0.0117806662, -0.0165146459, 0.1677211225, 0.0901439935, -0.0011168332,
  -0.2910679579, 0.0105491746, 0.0233936217, 0.0490753688, -0.0950005352,
  -0.0656819344, -0.2851430774, -0.3286950588, -0.0705319047,
  -0.1612621099, 0.0080908453},
 {0.3192854822, 0.1060782298, 0.2830762863, 0.0513407215, 0.0310000982,
  -0.1374180466, 0.1223001629, -0.0052814153, -0.1718489826, 0.1201388612,
  -0.1388351172, 0.0976368189, 0.1040548682, 0.0836202577, -0.2787751555,
  0.0477579124, -0.1689073741, -0.0023988069, -0.2627741694,
  -0.0944939330, -0.2038227618, -0.2553490102, 0.0970386714,
  -0.1015429497, 0.0543532930},
 {0.2782022059, 0.0692099482, 0.1779593825, -0.0025990319, -0.0052885562,
  0.0163185485, 0.0533608645, -0.0211101994, -0.1997084916, 0.0651957542,
  0.0673376098, 0.1788731813, 0.0889325440, 0.1405314058, -0.1546446532,
  -0.0047640475, -0.2792973220, 0.0241733901, -0.1274013966,
  -0.0829935819, -0.2328922749, -0.1892056763, 0.0880098566,
  -0.0714465901, 0.0383071788},
 {0.1428179145, 0.1928806007, 0.1659309417, 0.0454758070, -0.0115821147,
  0.1467028856, 0.1546355188, 0.0210333057, -0.0010163717, 0.1651330739,
  0.0983924344, 0.1536515355, 0.0046351235, -0.0232695248, -0.1307014376,
  -0.0266711581, -0.1462384164, -0.0690487772, -0.1423840076,
  -0.0559151620, -0.2672230303, -0.1408005208, -0.0494429469,
  -0.1607587785, 0.0506155789},
 {0.0883802697, -0.0870823786, -0.0350889489, -0.0152001027, 0.0228837226,
  0.1444214582, 0.1325974613, 0.1549952924, -0.0564637408, 0.0072277505,
  0.0234526433, 0.0672183335, 0.0166952256, 0.0928013027, -0.0468905494,
  0.1710710526, -0.2068422139, -0.0277422909, -0.1646946520, 0.0850856826,
  -0.2110943198, -0.0904123709, 0.0288410112, -0.3458324671, 0.0687342584},
 {-0.0426084250, -0.0913790837, -0.0970428884, 0.0034538852, 0.0084718633,
  0.1500080824, 0.1772788316, -0.0093583511, 0.0111177955, 0.0311590564,
  0.0153375734, 0.2521877587, -0.1264342219, 0.1309807599, 0.1726764292,
  0.3349615633, -0.3004837036, -0.0665638521, -0.0602071323, 0.0119350431,
  -0.0503617153, 0.0449130051, -0.0639430434, -0.4402020872,
  -0.0081597548},
 {-0.1087953448, -0.0347955637, -0.1950093359, 0.0533295646, 0.1123577952,
  0.4172318280, 0.2304329276, 0.3803696036, -0.1547126621, 0.0747833624,
  0.1982526481, 0.1905981451, 0.0583690070, -0.0210221596, 0.2237402499,
  0.4654762745, -0.4025355279, 0.2629002929, -0.0873174071, -0.0622888841,
  -0.2639536858, 0.0003060774, -0.2195852250, -0.8183132410, 0.0113032199},
 {-0.1179338992, -0.0105457045, -0.1494121850, -0.1035818756,
  0.2578372657, 0.7489358783, 0.2273538709, 0.5723484159, -0.1105628461,
  0.3908690214, 0.5525910854, 0.2445595562, 0.1718490869, -0.2985439897,
  0.4280897975, 0.5405970812, -0.4876192212, 0.3762299120, -0.0895538926,
  -0.3836429715, -0.1336696297, -0.1659536511, -0.5642829537,
  -0.6251705885, -0.2819818556},
 {0.0966978818, 0.0708101690, 0.0577073134, -0.0821709633, 0.2240676880,
  0.6203288436, 0.2396510541, 0.2911110222, 0.0526250340, 0.3240186870,
  0.3037053049, 0.2332399935, 0.3163563013, -0.2539584339, 0.5388407707,
  0.2666547596, -0.2577166557, 0.1719470471, -0.0258452781, -0.3439573050,
  -0.1410826296, -0.1069665775, -0.5608775616, -0.3243684769,
  -0.1218664348},
 {0.0828084946, 0.0397483520, -0.0802918449, -0.0306449309, -0.0137082702,
  0.1190599799, 0.0781684369, 0.0725674033, 0.0334060527, 0.1607932150,
  0.0369797051, 0.0402046517, 0.0899828896, -0.1327514201, 0.2009695470,
  -0.0323069766, -0.1254202425, 0.0495621599, 0.0148281567, -0.1051526070,
  -0.0598904863, 0.0119149880, -0.1464015394, -0.0226980764,
  -0.1052539870},
 {0.0565156341, -0.0485004410, 0.0393593758, -0.0795687214, 0.0170812514,
  0.1024853736, 0.0568995662, -0.0279999282, 0.0675259531, 0.0333247855,
  -0.0225079618, -0.0054863659, -0.0434504002, -0.0642108247,
  0.0954571217, 0.0906886384, 0.0229088385, -0.0619040690, 0.0557778962,
  -0.0412170589, 0.0576568879, 0.0506093502, 0.0462328158, -0.0377380252,
  0.0433251821},
 {-0.0728323162, -0.0185091272, 0.0429201685, 0.0196722597, 0.0544583388,
  0.0043775584, 0.0595502891, -0.0429847091, -0.0275223292, 0.0114627546,
  -0.0678630769, -0.0048087258, 0.0512487218, -0.0120715275,
  -0.0045103589, -0.0440389104, -0.0234239250, -0.0815779641,
  0.0175364036, -0.0283683874, -0.0246407520, 0.0265902411, -0.0316296145,
  0.0758334920, 0.0345879756},
 {-0.0491298884, 0.0700266436, 0.0654456615, -0.0390274301, -0.0395731218,
  0.0498350225, -0.0542953983, 0.0840694308, 0.0585091673, -0.0618611127,
  -0.0312961787, -0.0114497980, -0.0061277417, 0.0100591993, 0.0669325963,
  0.0650869310, 0.0698986053, -0.0425499156, -0.0454643928, 0.0910698101,
  -0.0650950819, 0.0535907187, -0.0291404091, 0.0438273177, 0.0190088451},
 {-0.0505898222, 0.0761504322, -0.0372192226, 0.0158930179, -0.1190768629,
  -0.0579624139, -0.0640033036, 0.0678268746, 0.0973463878, 0.0861122161,
  -0.1101592854, -0.0205864329, -0.0897719637, 0.0820364654,
  -0.0377339534, -0.0855258703, 0.0247097835, -0.0469248183,
  -0.1243244782, 0.0099942703, 0.0168428887, 0.0876456276, -0.0198465958,
  -0.0600193553, 0.0989594311},
 {0.0821405873, 0.2374599725, -0.1344901770, 0.0655639693, -0.2118596882,
  -0.0165982414, -0.0631925315, 0.0028861365, 0.2213592827, 0.0358615592,
  -0.0893280059, 0.1652653068, -0.1157304868, 0.0247037113, 0.0259116944,
  -0.2431381643, -0.0593041591, -0.0245764609, -0.0447406769,
  -0.0360311121, -0.0794683099, 0.0463886932, 0.0270373914, 0.1784273088,
  0.3481102884},
 {0.0840438381, 0.2969256639, -0.4125607610, 0.2502255440, -0.1031065062,
  0.0195145924, -0.1876092404, -0.0879311636, 0.3897472322, -0.1608029157,
  -0.2588053048, 0.2044227421, -0.1435247213, 0.0256858040, 0.0894535482,
  -0.5207441449, 0.0039415960, -0.3258083165, -0.0905330256,
  -0.0721908286, 0.0160134006, 0.0731136426, 0.0047120131, 0.4644625783,
  0.5331491232},
 {0.1764145046, 0.2121393085, -0.3559457958, 0.0763491541, -0.0546660908,
  0.1846698076, -0.0285893716, 0.1449555457, 0.3001331687, -0.0363128260,
  -0.5396132469, 0.3713856936, -0.2226035297, 0.0584278479, 0.0289864466,
  -0.4117500186, 0.0383348465, -0.1274650097, -0.1459998488, 0.0131949345,
  -0.0028102829, -0.0090974849, 0.1323442608, 0.1885064691, 0.4565161169},
 {0.2286061347, 0.1105318889, -0.2683491111, 0.1011334509, -0.0125311818,
  0.0105887307, -0.0480141863, 0.2455123216, 0.1439631134, 0.1340757757,
  -0.6273599863, 0.3520897627, -0.2762051821, -0.0042191623,
  -0.0086998073, -0.0556544960, -0.1626130044, -0.0969222710,
  -0.2318979800, -0.0124239540, -0.1777799278, 0.1015280113, 0.1295011342,
  0.0512693301, 0.1478128582},
 {0.2419180572, 0.1752564013, -0.1732242107, 0.0936553776, -0.0068820221,
  0.0576868877, -0.0003443485, 0.2930767834, 0.2083005160, 0.3350070715,
  -0.8286231160, 0.1333937943, -0.2198280096, -0.0682511106,
  -0.0187178589, -0.0169629008, -0.2717586756, -0.1730212271,
  -0.1392715275, 0.0444965586, -0.2521498799, 0.1119952276, 0.1834357083,
  0.0802379474, 0.1814509183},
 {0.4375004470, -0.0175422449, 0.0389403962, 0.0488694012, 0.0042297533,
  0.0340796225, 0.0881266817, 0.3253979981, 0.1389795542, 0.3308206499,
  -0.4319507182, 0.1951443553, -0.1410486996, -0.0062993513,
  -0.0792915896, 0.2086078972, -0.2580341697, -0.0360398814,
  -0.0799990222, 0.0189712476, -0.2912752926, 0.0788227990, 0.1044532210,
  -0.0842604637, 0.0595520660},
 {0.3534919918, -0.1278561056, 0.1003695205, 0.0221546646, 0.0772154331,
  0.1305780113, 0.0377467126, 0.2430576235, 0.1935858876, 0.3966579139,
  -0.1159695238, 0.1828886122, -0.0528733060, 0.0251132380, 0.0108327540,
  0.0871445909, -0.0647989362, -0.0012529639, -0.1357923299, 0.0976188406,
  -0.2536380887, 0.0061684307, 0.0625200048, -0.1171353087, 0.0258665048},
 {0.3584828675, -0.0095103858, 0.0753296167, -0.1349581182, 0.0484702289,
  0.0247661825, 0.0477784686, 0.0420129634, 0.2737298012, 0.2356846929,
  -0.1305221021, 0.2236330211, -0.2229699939, 0.0219994001, -0.1237011403,
  -0.0015341566, -0.0897309631, -0.1362778395, -0.1134812608,
  0.0807744414, -0.0429977439, 0.0868269652, 0.0395190902, -0.2342607826,
  0.1230985895},
 {0.3749290407, 0.0724555030, 0.1883762032, -0.1432177424, -0.0170114748,
  -0.0773171037, 0.1027471200, -0.0156805627, 0.2326825112, 0.1552021354,
  0.0293158665, 0.2067858279, -0.0476657934, -0.1100238115, -0.0861779600,
  0.1068872958, -0.1180205047, -0.1992128044, -0.0075114770, 0.0466851890,
  -0.1756063253, 0.0414509661, 0.0234796125, -0.2881938815, -0.0964572877},
 {0.4052493870, 0.0920751020, 0.2024673074, -0.0882985815, -0.0389799550,
  -0.2123382092, 0.1430799067, -0.1039475426, 0.1079958230, 0.1365374476,
  -0.0347241461, 0.2225357145, -0.1822121292, -0.0481951088,
  -0.0684823468, 0.0270833615, -0.1281933188, -0.2702265382,
  -0.2236884683, 0.0264999773, -0.1348469555, -0.0055279499,
  -0.0538886264, -0.2777241766, -0.1882122010},
 {0.4695066810, 0.1913544685, 0.3079496622, -0.1358815581, 0.0391497724,
  -0.1729605198, 0.3272922933, -0.0630565658, 0.0291581452, 0.0845602974,
  -0.0142013133, 0.2086605132, -0.1602535099, -0.0237788018,
  -0.1023792699, -0.1434944868, -0.0499045141, -0.2870812714,
  -0.0663725436, 0.0659628659, -0.0749323517, -0.0610039905,
  -0.0888925567, -0.0905673206, -0.3245254159},
 {0.5545980930, 0.1707383394, 0.4570052922, -0.0159851350, 0.0168153606,
  -0.3257151246, 0.3033474684, -0.2775959074, -0.0184261352, 0.1380953640,
  0.0471272543, 0.1516024470, -0.0205181278, 0.1077649444, -0.2710781991,
  -0.2975391150, 0.1807553768, -0.2707643211, -0.1061072871,
  -0.0672442839, -0.1248957515, -0.1491202563, -0.0711494386,
  0.0681690127, -0.2829926908},
 {0.5593982935, 0.2140533626, 0.3611774445, -0.0662300587, 0.0389094912,
  -0.3501740992, 0.1536874771, -0.2667671144, 0.0008400051, -0.0331757106,
  -0.1882269084, 0.1670967638, -0.0178480744, 0.1305888295, -0.4369785786,
  -0.2725120783, 0.1698732674, -0.0639585182, -0.0829289332, 0.0548945963,
  -0.1074418128, -0.1965893656, -0.1316409260, 0.0655830130,
  -0.0027984311},
 {0.3957086504, 0.1225493178, 0.3249032795, 0.0051715905, 0.1470233500,
  -0.2095460743, -0.0143500883, -0.1530569941, -0.1770831794,
  -0.0768098384, -0.1670313329, 0.2091577798, 0.0489825383, 0.1174774840,
  -0.3277530372, -0.1555839777, -0.0566992313, 0.0540195592,
  -0.2247516513, 0.0977276638, -0.1929115653, -0.2428856641, 0.0749959946,
  -0.0380406231, 0.0368250646},
 {0.1270973235, 0.1579139233, 0.3224573433, 0.1333482116, 0.0512688905,
  -0.1348491311, -0.0081675537, -0.1502296627, -0.2957554460,
  -0.0438630581, -0.2185553610, 0.1934039295, 0.0868093818, 0.0569357872,
  -0.1648700982, -0.0272933170, -0.0464171171, 0.0638412014,
  -0.3460291922, 0.0737344623, -0.2226483822, -0.0705329180, 0.2232528925,
  0.0819766670, 0.1610582173},
 {0.1875903308, 0.2523899376, 0.1724424958, 0.1277792454, -0.0955871567,
  0.1134407595, 0.0191365331, -0.0264827516, -0.2194773555, 0.0563195683,
  -0.1183999926, 0.3437523544, 0.0896699056, 0.0686915144, -0.2006055117,
  -0.1330572367, -0.1631444097, 0.1107633412, -0.2790481150, 0.0390078612,
  -0.1241709739, -0.0731847584, 0.1888768077, -0.0074290792, 0.1241865307},
 {0.1957179159, 0.1440986395, -0.0326181725, -0.0966648608, -0.0288696643,
  0.0777042285, 0.0551094152, -0.0997591913, -0.0470906310, -0.0487977937,
  -0.1175362989, 0.4071577191, -0.0102580898, 0.0218602475, 0.0678760037,
  -0.1833563149, -0.2139926255, 0.1197054312, -0.2360075563, 0.0455469601,
  -0.1485286653, -0.0593184456, 0.0725853816, -0.0335186236, 0.0039476422},
 {0.1449483484, 0.2402005643, 0.0895414427, -0.0380295478, -0.0595807917,
  0.0869632065, 0.1250490397, -0.0008437281, 0.0135838073, 0.1302568167,
  -0.0183887742, 0.2748958766, -0.0210275445, -0.0395035446, 0.0329335183,
  -0.0571682863, -0.2500059903, 0.1915917844, -0.1023226678,
  -0.0583907142, -0.1170719638, -0.0325794332, -0.0915095210,
  -0.1112267002, -0.0752319247},
 {0.0079037910, 0.2058917582, -0.0311574116, -0.1425787657, 0.0619602390,
  0.1924912184, 0.1642636508, -0.0125879347, -0.0093722185, 0.1278061718,
  0.0418474302, 0.2027030587, -0.0441657044, -0.0572280623, 0.0560140833,
  -0.0021982624, -0.0632679313, 0.1806754917, -0.1608147621,
  -0.0643086731, -0.1989679039, -0.1796956658, 0.0933127925,
  -0.2786696851, 0.1614474505},
 {-0.0674331114, 0.1362244934, -0.1196897626, -0.0921650156, 0.0678353384,
  0.0471430086, 0.1208491921, 0.1000419259, 0.0193119217, 0.0094344849,
  0.0237158332, 0.2518011034, 0.0762865394, -0.0044629797, 0.1113203391,
  0.1108415127, -0.2024061978, 0.1719040424, -0.1527675837, 0.0754373670,
  -0.1220421791, -0.1269250363, -0.0332355425, -0.6049361229,
  0.2336376905},
 {0.0521766096, -0.0602683090, -0.1288978755, -0.1026312113, 0.2443259507,
  0.0699171200, 0.2338855118, 0.4560980499, -0.0964109376, 0.0546602756,
  0.2997559011, 0.4003951848, -0.0181160886, -0.0874412730, 0.2145697922,
  0.5588022470, -0.4010484517, 0.5270638466, -0.3508248031, -0.1812834591,
  -0.0654144362, -0.1756842434, -0.3037306368, -0.8821902275,
  0.0369200073},
 {0.0203317348, 0.1013231575, -0.0838595852, -0.1916340142, 0.2361401021,
  0.6065157056, 0.2684386373, 0.8580330014, -0.0797340125, 0.4262953997,
  0.5262704492, 0.3990310431, 0.0764457285, -0.4984408617, 0.3510765135,
  0.6938393116, -0.5649226904, 0.5439385772, -0.3189883828, -0.4262987375,
  -0.1917636693, -0.1891587079, -0.6104559302, -0.8215475082,
  -0.2937086225},
 {0.1588571072, 0.3203748763, 0.1469654143, -0.1338973641, 0.1909191906,
  0.6320869327, 0.2735098302, 0.2924064696, -0.0474277027, 0.5396475196,
  0.6200711131, 0.3230737448, 0.2289271951, -0.3822858930, 0.5989808440,
  0.4822919965, -0.4520379007, 0.1742444634, -0.0981561914, -0.5605112910,
  -0.1384074390, -0.1666533649, -0.7259949446, -0.3763280213,
  -0.2729711831},
 {-0.0009186014, 0.1051191688, 0.0211511608, 0.0032024800, 0.0511316657,
  0.1986842006, 0.0289516542, -0.0244719628, 0.0039577256, 0.1559851915,
  0.0363509655, 0.0727048963, -0.0214109533, -0.1861304939, 0.2274630815,
  0.0487862490, -0.1311138421, -0.0422215909, -0.0702443123,
  -0.1268800497, -0.0299101062, -0.0545381531, -0.2361963838,
  -0.1706901938, 0.0645248741},
 {-0.0042083031, -0.0770439059, 0.0442137159, -0.0716349632, 0.0647936687,
  0.0818714276, -0.0328598097, -0.0659180433, 0.0524158590, 0.0603621267,
  -0.0256837402, 0.0849117115, -0.0280831642, -0.0845481083, 0.0835609213,
  -0.0489396863, -0.0027457755, 0.0377357453, 0.0640213415, -0.1070626155,
  -0.0335488282, -0.0013770878, -0.0168751981, -0.0515439324,
  -0.0382787287},
 {-0.0201425143, -0.0098154927, 0.0359159708, 0.0167232063, 0.0112335943,
  0.0518405624, 0.0222725384, 0.0315286033, 0.0404157154, 0.0068990104,
  -0.0570618697, 0.0462712161, 0.0126633933, 0.0044631930, -0.0584573448,
  -0.0241314191, -0.0785281360, -0.0039947159, 0.0251266118, 0.0575101972,
  -0.0686147735, 0.0793056786, 0.0032270695, 0.0459103063, 0.0284131076},
 {0.0167769790, -0.0264592748, -0.0732971579, 0.0086597428, -0.0797630921,
  -0.0870808065, -0.0650340021, -0.0060680597, 0.0036539915,
  -0.0374997966, -0.0623877645, 0.0073503470, -0.0397240110,
  -0.0346596427, -0.0673654526, -0.0559664071, 0.0489406995,
  -0.0398182757, -0.0275627282, 0.0077227261, -0.0150974626,
  -0.0115385056, 0.0194538925, -0.0495837405, -0.0117999073},
 {-0.0093035754, 0.0436986089, 0.0099586751, -0.0097663617, -0.0378491506,
  -0.0236114413, -0.0253996067, 0.0462683477, 0.1435275674, -0.0288690310,
  -0.1382199377, 0.1201381534, 0.0380690098, 0.1092795879, -0.0222117286,
  -0.0553403832, -0.1476016939, -0.0338979401, -0.1375107765,
  -0.0110153332, -0.0805500895, 0.0150654409, -0.0466595069, 0.0083653154,
  0.1661752760},
 {0.1588353962, 0.2300591022, -0.0218263417, 0.1484785974, -0.2597312033,
  -0.0315861702, -0.1663669497, 0.0315742902, 0.3007706702, 0.1326769888,
  -0.2452161461, 0.2825157642, -0.1781661958, 0.0336113796, -0.1494815946,
  -0.3401632309, -0.0898226425, -0.0169156771, -0.1522380114,
  0.0930405632, -0.1683630794, 0.0594006851, -0.0832655504, 0.1812256575,
  0.3649167418},
 {0.2865364552, 0.3070033789, -0.1923435181, 0.1486013085, 0.0141975936,
  -0.1001639292, -0.0857333541, -0.1089004502, 0.4830566645,
  -0.1239970252, -0.3406164944, 0.3764234483, -0.3267318904, 0.0206878483,
  0.0476013571, -0.4703739285, -0.0483561680, -0.2670718729,
  -0.1211866960, -0.0079900613, -0.0406449363, 0.0089843599, 0.0195594318,
  0.3058656752, 0.4850353003},
 {0.2993389666, 0.1538593322, -0.1287943423, 0.1844734550, -0.0635086671,
  -0.0505166426, -0.0478297509, 0.1628570259, 0.3258261979, 0.1357709914,
  -0.6014879942, 0.2601901889, -0.4631870091, 0.2151421458, 0.0525154434,
  -0.2979972661, -0.1966085136, -0.0445474647, -0.1454790235,
  0.1073151454, -0.0444402359, 0.2380553335, 0.1841707379, 0.1121080592,
  0.2948588431},
 {0.2921255529, -0.0160211772, 0.0915616155, -0.0060446355, 0.0978378505,
  0.0874856710, -0.0240802299, 0.0998294055, 0.0835474432, 0.2578893900,
  -0.7090097070, 0.1509636343, -0.2614519894, 0.0092753628, -0.0243025273,
  -0.2290013880, -0.2694134712, -0.0823094919, -0.0164846685,
  -0.0506627187, -0.0498460270, 0.1261264831, 0.2044096440, 0.1168411747,
  0.1677864343},
 {0.3825667500, 0.0146349594, 0.0971809477, -0.0062034247, 0.0520193912,
  0.0551452525, -0.0506252162, 0.1513216048, 0.0613454767, 0.3540287912,
  -0.6018201113, -0.1323336363, -0.2573816478, -0.0627941862,
  -0.1712033004, 0.0589497872, -0.2547135949, -0.0020171097,
  -0.0393469483, -0.0453832746, -0.0965707302, 0.0293447953, 0.1958395690,
  0.0070856269, -0.0866741464},
 {0.3486180305, -0.1624015123, 0.1671898663, -0.0788822100, 0.0684649423,
  0.0743222088, -0.0059808725, 0.1309354305, 0.0867559612, 0.3969552219,
  -0.2612720430, -0.0622437522, -0.1512022316, -0.0547802411,
  -0.0272733662, 0.1614513546, -0.1743657589, -0.0586815663, 0.0096529052,
  -0.0483352169, -0.1078527644, -0.0051480187, 0.1074212417,
  -0.1690361798, 0.0007187538},
 {0.3318046629, -0.1338235140, 0.1691050828, -0.0568536595, 0.0452350862,
  0.0612862632, -0.0499944948, 0.1521424502, 0.1563851684, 0.3073076904,
  -0.0510852858, 0.0276252702, -0.2024179101, 0.0410672687, 0.0543772690,
  0.1549006104, -0.0217611305, 0.0234734546, 0.0147309098, 0.0094558122,
  -0.0753971413, -0.0804410577, 0.0846038833, -0.3113462925, 0.0577973239},
 {0.3075207472, -0.1457832605, 0.0597834028, -0.1216594055, -0.0345230065,
  -0.1397503763, 0.1428827345, 0.1896175146, 0.2377695739, 0.0995269418,
  0.1122321561, 0.1335858703, -0.1949775964, 0.0015738928, -0.0968399420,
  0.1643736064, -0.0406371094, 0.0338204466, -0.0977594107, 0.0648711771,
  -0.0591209270, -0.0173378848, 0.0742525160, -0.2603779137,
  -0.1335597932},
 {0.3759635091, -0.2612783313, 0.2083267868, -0.2089549154, -0.0355986692,
  -0.1882743239, 0.2268052101, 0.2303994447, 0.1836828887, 0.3476765156,
  0.1662636250, 0.2176808417, -0.2373672575, -0.1665721983, -0.0557943471,
  0.1911699623, -0.1263672113, 0.1607062817, -0.0635001585, 0.1113278270,
  0.0621476546, -0.0602146089, 0.0289251860, -0.4153607190, -0.3096907437},
 {0.2732103169, -0.0167078767, 0.2722790539, -0.0616129972, -0.0845651329,
  -0.1092760190, 0.3506702185, 0.3407425880, 0.1367683560, 0.0588558614,
  0.1456313878, 0.1429660171, -0.2352948189, -0.2057455629, 0.0374265276,
  0.0498125851, -0.0865160823, 0.0465715826, -0.2227510959, 0.0447426662,
  -0.0505428314, 0.0175315328, -0.0752782151, -0.2051306814,
  -0.4147150517},
 {0.1478648037, 0.2185472250, 0.3846228123, -0.1517880857, -0.0576864593,
  -0.2209861577, 0.2855763435, 0.2667923570, 0.1110165268, 0.0924978554,
  0.1756064445, 0.1718147397, -0.1902710646, -0.0541238487, -0.2106892914,
  -0.0697892234, -0.0445454232, -0.2748428881, -0.1847562343,
  0.0036051082, 0.1137877479, -0.0261065140, -0.2059369683, -0.0688563287,
  -0.3351308107},
 {0.2193294317, 0.3886396587, 0.4918952584, 0.0143216811, 0.0629426911,
  -0.4248116016, 0.3622734547, -0.0681488588, 0.3286502063, 0.0709837005,
  -0.0362292454, 0.2040105760, -0.0567673631, 0.2150859237, -0.4340521097,
