#ifndef W2_H
#define W2_H

const float w2[25][10] = {{0.4068474770, -1.3765540123, 0.2483624816, 0.8578355908, -2.2344770432,
  0.0235108547, -1.7761669159, 0.5525341630, 0.9460837841, 0.7470956445},
 {-0.3691518903, 1.0212146044, -1.5867382288, 1.2783004045, -1.2794947624,
  0.2782594264, -1.1140785217, 1.3045518398, -0.7053885460, -0.5337812901},
 {0.5165922046, 0.7347468138, -0.7263656855, 0.1062267199, -1.6330838203,
  0.4278802276, -1.7631450891, 0.4457038343, -0.9677526951, 1.0524621010},
 {-0.7876662612, 0.2170942724, -1.0918624401, -1.3106601238, 1.2716944218,
  -1.0775251389, -1.2220634222, 1.4631209373, -1.9106817245, 0.7906992435},
 {0.5413616300, 0.0955844969, 0.2536312342, -0.0821677819, -1.5294818878,
  0.6162611842, 0.7424656749, -2.2403118610, 0.6796870232, -1.1352555752},
 {-1.1651604176, 0.0878409073, -0.8670330644, 0.4874452949, 1.0557134151,
  0.8411793709, -1.6417462826, -1.0870505571, 0.3188506067, -0.3685363233},
 {-1.5837271214, 0.9054421782, 1.0425454378, -1.0892361403, -0.0400717705,
  0.3181196749, -1.2897539139, 0.0599959344, 0.3588801920, 0.8027897477},
 {0.3962397873, -1.3728827238, -1.3471835852, -1.2327594757, 0.6235360503,
  0.2796807885, 0.9053788781, 0.3761807978, 0.6677060127, -0.2243309766},
 {-1.4125634432, -0.9900680780, 1.0921119452, 0.7376790047, -1.4334312677,
  0.1378762573, 0.8040534258, 1.2277368307, -1.0741364956, -1.2559584379},
 {-1.8993142843, 0.3945108652, -1.0420167446, 0.2801942229, -0.9293180108,
  0.7541799545, -1.4947668314, 0.7759285569, 0.4771630764, 0.3631103933},
 {-1.1425104141, 1.0872802734, -1.7276554108, -1.9007430077, 0.0106061399,
  0.8923264742, 0.7841349840, -1.7245379686, 0.4391845465, 0.8843142986},
 {1.0977795124, -1.4732158184, 0.9894419909, 0.8729168773, -0.9115443826,
  0.3845678270, -1.9664157629, 0.5449371934, 0.0925045013, -1.4268063307},
 {0.7210814357, -1.6741076708, -0.7529759407, 0.8646515012, 0.4887764752,
  0.9525079131, -0.2158698738, -0.4835164249, -1.6289367676, 0.5409399271},
 {0.9819693565, 1.2483360767, 1.1002596617, -0.8255729675, -0.3764842153,
  -0.6171292067, 0.8070663214, -0.4167304635, -2.0126824379,
  -0.5191881657},
 {-1.7334898710, 0.3712737262, 0.9518769979, 0.0692384988, 0.9765037894,
  0.5072323680, 0.3830398619, -0.9739387631, 0.1646065116, -1.4992829561},
 {0.7326875925, -1.3094676733, -0.9725297689, -1.3844673634, 0.2507924736,
  1.6699303389, 0.8151878119, -0.1895879954, -1.0473451614, -1.7267304659},
 {-0.8411409855, -1.6029934883, 0.6876977682, 0.1112449020, 0.2498390377,
  -1.1737947464, 0.3580283523, -0.6424962282, -1.5904036760, 1.2699090242},
 {0.6893723011, -1.8093390465, -1.4019353390, -0.8329131603, 0.4100622535,
  -0.2596990466, -0.5401521325, -0.5295329690, 0.2294982225, 0.7743428349},
 {-2.0178394318, -0.3861229122, -0.0639691353, 0.6566123962, 0.9141601324,
  -0.6806440949, 0.8530060649, -1.4486767054, -0.0803199187, 0.3281489015},
 {0.2866854072, -1.3606075048, 0.1659919769, -1.2509993315, 0.3745341599,
  -1.5800613165, 0.7510154843, 0.8261896968, 0.9520735741, 0.3390073776},
 {1.1545151472, 0.9248964190, 0.5541334152, -0.2565521598, -1.6881397963,
  -0.0170085933, 1.1176486015, -1.7552528381, -0.1401838362,
  -1.2838723660},
 {-1.0598562956, 1.0085878372, 0.4136883020, -1.4085233212, 1.1330460310,
  -0.3766612709, -0.1515828967, 1.3759838343, -1.0754489899,
  -0.5699017048},
 {0.4223644733, -0.1487643123, 0.7172490954, -0.0881141871, -0.6668171883,
  -1.6637889147, -1.1190874577, -0.7774657011, 1.1485233307, 0.0483616702},
 {-1.2102707624, 1.2768055201, -1.0283281803, 1.2802481651, -0.4079971015,
  -1.6635215282, 0.6203025579, 0.0212720241, -0.7321006060, -0.0238207188},
 {-1.0655374527, 0.2547131479, 0.5346959829, 0.9499767423, -0.3769669235,
  -0.8276134133, -0.3591781557, 0.1223801076, 0.9796617031, -1.1868178844}};

#endif
